{"learner":{"attributes":{"scikit_learn":"{\"_estimator_type\": \"regressor\"}"},"feature_names":["temperature_2m_mean","precipitation_sum","wind_speed_10m_max","wind_direction_10m_dominant"],"feature_types":["float","float","float","float"],"gradient_booster":{"model":{"gbtree_model_param":{"num_parallel_tree":"1","num_trees":"100"},"iteration_indptr":[0,1,2,3,4,5,6,7,8,9,10,11,12,13,14,15,16,17,18,19,20,21,22,23,24,25,26,27,28,29,30,31,32,33,34,35,36,37,38,39,40,41,42,43,44,45,46,47,48,49,50,51,52,53,54,55,56,57,58,59,60,61,62,63,64,65,66,67,68,69,70,71,72,73,74,75,76,77,78,79,80,81,82,83,84,85,86,87,88,89,90,91,92,93,94,95,96,97,98,99,100],"tree_info":[0,0,0,0,0,0,0,0,0,0,0,0,0,0,0,0,0,0,0,0,0,0,0,0,0,0,0,0,0,0,0,0,0,0,0,0,0,0,0,0,0,0,0,0,0,0,0,0,0,0,0,0,0,0,0,0,0,0,0,0,0,0,0,0,0,0,0,0,0,0,0,0,0,0,0,0,0,0,0,0,0,0,0,0,0,0,0,0,0,0,0,0,0,0,0,0,0,0,0,0],"trees":[{"base_weights":[-1.9760964E-6,1.1645254E1,-1.4479959E1,4.13205E0,2.1686533E1,-8.469451E0,-2.8181522E1,1.7233604E1,-1.0872276E0,2.7553043E1,2.7530565E0,-1.4580561E1,-8.970884E-1,-3.5315353E1,-1.9242226E1,1.9165812E1,-9.935683E0,3.4873447E0,-9.012555E0,3.475683E1,1.8367287E1,1.3307377E1,-8.817863E0,2.1422522E0,-1.8330868E1,2.170569E0,-1.1810702E1,-2.6813814E1,-4.7016E1,-1.69952E1,-1.443068E1,3.3469776E1,1.5967557E1,5.5496225E0,-1.3288053E1,7.9377904E0,-1.18486395E1,-4.8801975E0,-1.8281164E1,3.8944866E1,2.4180616E1,-4.002392E0,2.0847208E1,1.8480284E1,-9.073767E0,1.391498E0,-1.8760017E1,2.7122639E1,-4.4450994E0,-8.471854E0,-1.9950245E1,5.523537E0,-7.190887E0,-1.5725868E1,-4.55798E0,-3.4768105E1,-1.4351296E1,-1.4298006E1,-3.7765506E-4,-9.987988E0,-2.3756104E1,1.0793958E0,1.1127394E1,7.613543E0,3.0506806E0,-5.8506613E0,-1.2863617E0,1.33793955E1,2.1640203E0,-4.5382447E0,7.0707817E0,-2.1055112E0,4.413584E0,-6.7565103E0,1.6793202E0,7.205783E0,1.3225442E1,-2.0695812E-1,9.256401E0,-3.0256925E0,1.3659953E0,7.791934E0,2.422789E0,1.4639396E1,4.599259E0,-5.125693E0,7.7994967E0,-2.0007238E0,6.179321E0,-3.3279939E0,-9.375692E0,1.0049299E1,-3.5005038E0,-1.6573644E-1,-3.3961756E0,-4.0207367E0,3.6293204E0,4.5994964E0,-6.0754895E0,3.5146358E0,-1.2244296E0,4.0494337E0,-2.5007439E0,-2.0545435E0,-5.572162E0,-3.9194582E0,2.1493077E0,-4.691596E0,-1.1406297E1,4.084043E-1,-5.746187E0,-3.7216592E-1,-6.825729E0,-6.4150295E0,-1.2514934E1],"categories":[],"categories_nodes":[],"categories_segments":[],"categories_sizes":[],"default_left":[0,0,0,0,0,0,0,0,0,0,0,0,0,0,0,0,0,0,0,0,0,0,0,0,0,0,0,0,0,0,0,0,0,0,0,0,0,0,0,0,0,0,0,0,0,0,0,0,0,0,0,0,0,0,0,0,0,0,0,0,0,0,0,0,0,0,0,0,0,0,0,0,0,0,0,0,0,0,0,0,0,0,0,0,0,0,0,0,0,0,0,0,0,0,0,0,0,0,0,0,0,0,0,0,0,0,0,0,0,0,0,0,0,0,0],"id":0,"left_children":[1,3,5,7,9,11,13,15,17,19,21,23,25,27,29,31,33,35,37,39,41,43,45,47,49,51,53,55,57,59,-1,61,63,-1,65,67,69,71,73,75,77,79,81,83,85,87,89,91,93,95,97,99,101,103,105,107,109,-1,-1,111,113,-1,-1,-1,-1,-1,-1,-1,-1,-1,-1,-1,-1,-1,-1,-1,-1,-1,-1,-1,-1,-1,-1,-1,-1,-1,-1,-1,-1,-1,-1,-1,-1,-1,-1,-1,-1,-1,-1,-1,-1,-1,-1,-1,-1,-1,-1,-1,-1,-1,-1,-1,-1,-1,-1],"loss_changes":[4.0250266E5,9.972039E4,8.73853E4,5.1851273E4,6.279172E4,3.427709E4,1.9982406E4,1.1529703E4,1.9717887E4,2.7948031E4,1.6603975E4,2.575271E4,1.114074E4,1.6545078E4,8.650484E3,8.706609E3,1.6756523E3,2.3640979E4,7.5327236E3,9.733031E3,1.0734645E4,8.387753E3,6.623802E3,1.2626712E4,5.1794062E3,8.200771E3,2.0012012E3,1.0008867E4,2.2405312E3,6.2531133E3,0E0,3.7610898E3,8.855176E3,0E0,6.9937573E2,6.795373E3,9.414668E3,5.926158E3,6.3028887E3,1.2059641E4,1.1806355E4,1.0868535E3,1.1115547E4,4.789912E3,4.3781025E3,5.2462085E3,2.813873E3,4.3475566E3,1.6263389E3,5.131741E3,3.3623125E3,1.1466662E4,1.746946E3,1.0610918E3,2.786056E3,3.3878594E3,3.270962E3,0E0,0E0,7.6760454E3,2.0483242E3,0E0,0E0,0E0,0E0,0E0,0E0,0E0,0E0,0E0,0E0,0E0,0E0,0E0,0E0,0E0,0E0,0E0,0E0,0E0,0E0,0E0,0E0,0E0,0E0,0E0,0E0,0E0,0E0,0E0,0E0,0E0,0E0,0E0,0E0,0E0,0E0,0E0,0E0,0E0,0E0,0E0,0E0,0E0,0E0,0E0,0E0,0E0,0E0,0E0,0E0,0E0,0E0,0E0,0E0],"parents":[2147483647,0,0,1,1,2,2,3,3,4,4,5,5,6,6,7,7,8,8,9,9,10,10,11,11,12,12,13,13,14,14,15,15,16,16,17,17,18,18,19,19,20,20,21,21,22,22,23,23,24,24,25,25,26,26,27,27,28,28,29,29,31,31,32,32,34,34,35,35,36,36,37,37,38,38,39,39,40,40,41,41,42,42,43,43,44,44,45,45,46,46,47,47,48,48,49,49,50,50,51,51,52,52,53,53,54,54,55,55,56,56,59,59,60,60],"right_children":[2,4,6,8,10,12,14,16,18,20,22,24,26,28,30,32,34,36,38,40,42,44,46,48,50,52,54,56,58,60,-1,62,64,-1,66,68,70,72,74,76,78,80,82,84,86,88,90,92,94,96,98,100,102,104,106,108,110,-1,-1,112,114,-1,-1,-1,-1,-1,-1,-1,-1,-1,-1,-1,-1,-1,-1,-1,-1,-1,-1,-1,-1,-1,-1,-1,-1,-1,-1,-1,-1,-1,-1,-1,-1,-1,-1,-1,-1,-1,-1,-1,-1,-1,-1,-1,-1,-1,-1,-1,-1,-1,-1,-1,-1,-1,-1],"split_conditions":[1.837158E1,1.5929475E2,2.0345573E1,1.4186923E1,9.0000004E-1,1.4096744E2,1.6266666E2,3.9999995E0,1.4171585E1,1.9083395E1,2.1046917E1,1.2979984E1,1.839878E1,2.5996582E1,3.290014E1,2.6945686E1,1.01376915E1,4.8999996E0,2.0275383E1,1.11465845E1,-7.008337E-2,3.522575E2,5.8000007E0,2.0482E1,2.0163254E1,2.9069502E1,1.9247847E2,7.142488E1,3.132575E1,1.0000001E0,-1.443068E1,8.297589E0,1.127553E1,5.5496225E0,8.3E0,1.0179489E0,1.2499207E2,7.6E0,1.4930952E2,3.592416E0,1.2641076E1,3.1589597E2,1.2102834E1,1.6845686E2,2.0345573E1,3.6999998E0,3.3566458E2,1.155544E2,1.1792404E1,1.9823668E1,4.352556E0,2.7999997E0,1.1183201E1,1.5818074E2,1.9483284E1,2.1470612E1,2.0611168E1,-1.4298006E1,-3.7765506E-4,2.7309084E1,3.3514624E2,1.0793958E0,1.1127394E1,7.613543E0,3.0506806E0,-5.8506613E0,-1.2863617E0,1.33793955E1,2.1640203E0,-4.5382447E0,7.0707817E0,-2.1055112E0,4.413584E0,-6.7565103E0,1.6793202E0,7.205783E0,1.3225442E1,-2.0695812E-1,9.256401E0,-3.0256925E0,1.3659953E0,7.791934E0,2.422789E0,1.4639396E1,4.599259E0,-5.125693E0,7.7994967E0,-2.0007238E0,6.179321E0,-3.3279939E0,-9.375692E0,1.0049299E1,-3.5005038E0,-1.6573644E-1,-3.3961756E0,-4.0207367E0,3.6293204E0,4.5994964E0,-6.0754895E0,3.5146358E0,-1.2244296E0,4.0494337E0,-2.5007439E0,-2.0545435E0,-5.572162E0,-3.9194582E0,2.1493077E0,-4.691596E0,-1.1406297E1,4.084043E-1,-5.746187E0,-3.7216592E-1,-6.825729E0,-6.4150295E0,-1.2514934E1],"split_indices":[0,3,2,2,1,3,3,1,0,2,2,2,2,0,2,3,2,1,2,0,0,3,1,0,0,0,3,3,0,1,0,2,2,0,1,3,3,1,3,0,2,3,0,3,2,1,3,3,2,0,3,1,2,3,2,2,0,0,0,0,3,0,0,0,0,0,0,0,0,0,0,0,0,0,0,0,0,0,0,0,0,0,0,0,0,0,0,0,0,0,0,0,0,0,0,0,0,0,0,0,0,0,0,0,0,0,0,0,0,0,0,0,0,0,0],"split_type":[0,0,0,0,0,0,0,0,0,0,0,0,0,0,0,0,0,0,0,0,0,0,0,0,0,0,0,0,0,0,0,0,0,0,0,0,0,0,0,0,0,0,0,0,0,0,0,0,0,0,0,0,0,0,0,0,0,0,0,0,0,0,0,0,0,0,0,0,0,0,0,0,0,0,0,0,0,0,0,0,0,0,0,0,0,0,0,0,0,0,0,0,0,0,0,0,0,0,0,0,0,0,0,0,0,0,0,0,0,0,0,0,0,0,0],"sum_hessian":[2.385E3,1.322E3,1.063E3,7.57E2,5.65E2,7.4E2,3.23E2,2.15E2,5.42E2,4.31E2,1.34E2,4.09E2,3.31E2,1.78E2,1.45E2,2.01E2,1.4E1,3.44E2,1.98E2,2.4E2,1.91E2,7E1,6.4E1,7.5E1,3.34E2,2.59E2,7.2E1,1.05E2,7.3E1,1.36E2,9E0,3.5E1,1.66E2,1E0,1.3E1,2.67E2,7.7E1,1.38E2,6E1,1.7E2,7E1,1.9E1,1.72E2,5.7E1,1.3E1,3.2E1,3.2E1,1.5E1,6E1,4.8E1,2.86E2,1.91E2,6.8E1,4.6E1,2.6E1,6.3E1,4.2E1,7.2E1,1E0,6.8E1,6.8E1,4E0,3.1E1,6.2E1,1.04E2,7E0,6E0,4E0,2.63E2,7.1E1,6E0,1.25E2,1.3E1,5.1E1,9E0,4.5E1,1.25E2,1.5E1,5.5E1,1.1E1,8E0,1.22E2,5E1,4E0,5.3E1,1.1E1,2E0,2.3E1,9E0,2.1E1,1.1E1,1.3E1,2E0,3.9E1,2.1E1,3.9E1,9E0,2E0,2.84E2,1.16E2,7.5E1,3E0,6.5E1,1.2E1,3.4E1,1.5E1,1.1E1,1E1,5.3E1,1E1,3.2E1,4.1E1,2.7E1,6.2E1,6E0],"tree_param":{"num_deleted":"0","num_feature":"4","num_nodes":"115","size_leaf_vector":"1"}},{"base_weights":[3.0519657E-3,8.218205E0,-1.0211845E1,2.940709E0,1.5271427E1,-4.0764194E0,-1.7336617E1,1.5629871E1,-9.7631235E-3,1.9375177E1,2.026306E0,-7.9691553E0,2.897383E0,-1.5351536E1,-3.08565E1,2.5300982E1,9.297916E0,3.4356709E0,-4.616689E0,2.4909151E1,1.3183006E1,1.1600257E1,-4.907131E0,1.722709E0,-1.0291866E1,3.2881905E1,2.1408484E0,-1.9141724E1,-6.5255985E0,-2.5222364E1,-3.639802E1,2.7462248E1,-6.6106405E0,-7.496673E0,1.2576578E1,6.7247434E0,-8.246633E0,-1.1513491E1,1.3898131E0,1.4485834E0,2.6327557E1,-2.37626E0,1.4868821E1,1.5460306E1,-1.8180134E1,9.8323417E-1,-1.1620066E1,6.6409283E0,-1.457982E1,-6.851963E-1,-1.1784401E1,3.144382E0,1.3296571E1,3.2822783E0,-1.2307797E1,-1.5589564E1,-2.4297087E1,-1.4930172E-1,-1.34055805E1,-1.064148E0,-2.6698997E1,-4.082817E0,-1.1274607E1,8.805376E0,-4.3303714E0,-5.391792E0,2.1130135E0,9.343331E0,2.198419E0,-4.050699E0,2.4564807E0,-2.965348E-1,-5.2831507E0,-2.1018777E0,-5.3861775E0,2.3872962E0,-8.561213E-1,7.3544087E0,-1.3315979E0,8.48173E0,4.1803503E0,-2.3106863E0,6.780354E-1,6.449023E0,3.3647027E0,3.6571274E0,1.1385804E1,-6.069206E0,-8.8152355E-1,-1.1952724E0,5.3322983E0,-4.6281896E0,5.8164066E-1,7.375115E-1,8.463005E0,-2.9841762E0,-8.144655E0,3.559753E0,-2.0808735E0,-3.0990136E0,-7.46029E0,1.961217E0,-1.1312749E0,-5.0139756E0,1.1956536E0,-3.1484964E0,-6.6103578E0,-5.437261E0,-9.724289E0,1.3859459E0,-2.7851691E0,-3.1134312E0,-9.125196E0,1.2605667E0,-1.7394334E0,-5.4455227E-1,-8.2329445E0],"categories":[],"categories_nodes":[],"categories_segments":[],"categories_sizes":[],"default_left":[0,0,0,0,0,0,0,0,0,0,0,0,0,0,0,0,0,0,0,0,0,0,0,0,0,0,0,0,0,0,0,0,0,0,0,0,0,0,0,0,0,0,0,0,0,0,0,0,0,0,0,0,0,0,0,0,0,0,0,0,0,0,0,0,0,0,0,0,0,0,0,0,0,0,0,0,0,0,0,0,0,0,0,0,0,0,0,0,0,0,0,0,0,0,0,0,0,0,0,0,0,0,0,0,0,0,0,0,0,0,0,0,0,0,0,0,0],"id":1,"left_children":[1,3,5,7,9,11,13,15,17,19,21,23,25,27,29,31,33,35,37,39,41,43,45,47,49,51,53,55,57,59,61,63,-1,65,67,69,71,73,75,77,79,81,83,85,87,89,91,93,95,97,99,-1,-1,101,103,105,107,109,111,113,115,-1,-1,-1,-1,-1,-1,-1,-1,-1,-1,-1,-1,-1,-1,-1,-1,-1,-1,-1,-1,-1,-1,-1,-1,-1,-1,-1,-1,-1,-1,-1,-1,-1,-1,-1,-1,-1,-1,-1,-1,-1,-1,-1,-1,-1,-1,-1,-1,-1,-1,-1,-1,-1,-1,-1,-1],"loss_changes":[2.0030977E5,4.9201586E4,4.6440508E4,2.8378932E4,3.0725469E4,1.5578418E4,1.2730609E4,8.521648E3,9.793543E3,1.4475109E4,9.018275E3,8.301922E3,4.602576E3,1.4292875E4,1.0177031E3,6.3343125E3,4.939895E3,1.3619107E4,1.0952375E4,7.5156562E3,5.438715E3,6.8334346E3,3.1352144E3,5.8697407E3,4.2504004E3,8.167661E2,3.3718054E3,5.133336E3,5.7448125E3,1.1844648E3,2.71E2,4.69741E3,0E0,2.411404E3,6.983342E3,8.280946E3,5.2838394E3,3.4447197E3,3.9803865E3,2.0099535E3,4.7640625E3,5.3597107E2,4.2624766E3,3.2882588E3,1.5933154E2,3.657419E3,1.9399155E3,4.98263E3,7.198003E2,3.2990476E3,4.6332344E3,0E0,0E0,4.3409316E3,1.143302E3,5.7117617E3,5.475414E3,3.0488054E3,2.9289932E3,9.9150696E1,5.427383E2,0E0,0E0,0E0,0E0,0E0,0E0,0E0,0E0,0E0,0E0,0E0,0E0,0E0,0E0,0E0,0E0,0E0,0E0,0E0,0E0,0E0,0E0,0E0,0E0,0E0,0E0,0E0,0E0,0E0,0E0,0E0,0E0,0E0,0E0,0E0,0E0,0E0,0E0,0E0,0E0,0E0,0E0,0E0,0E0,0E0,0E0,0E0,0E0,0E0,0E0,0E0,0E0,0E0,0E0,0E0,0E0],"parents":[2147483647,0,0,1,1,2,2,3,3,4,4,5,5,6,6,7,7,8,8,9,9,10,10,11,11,12,12,13,13,14,14,15,15,16,16,17,17,18,18,19,19,20,20,21,21,22,22,23,23,24,24,25,25,26,26,27,27,28,28,29,29,30,30,31,31,33,33,34,34,35,35,36,36,37,37,38,38,39,39,40,40,41,41,42,42,43,43,44,44,45,45,46,46,47,47,48,48,49,49,50,50,53,53,54,54,55,55,56,56,57,57,58,58,59,59,60,60],"right_children":[2,4,6,8,10,12,14,16,18,20,22,24,26,28,30,32,34,36,38,40,42,44,46,48,50,52,54,56,58,60,62,64,-1,66,68,70,72,74,76,78,80,82,84,86,88,90,92,94,96,98,100,-1,-1,102,104,106,108,110,112,114,116,-1,-1,-1,-1,-1,-1,-1,-1,-1,-1,-1,-1,-1,-1,-1,-1,-1,-1,-1,-1,-1,-1,-1,-1,-1,-1,-1,-1,-1,-1,-1,-1,-1,-1,-1,-1,-1,-1,-1,-1,-1,-1,-1,-1,-1,-1,-1,-1,-1,-1,-1,-1,-1,-1,-1,-1],"split_conditions":[1.837158E1,1.5929475E2,1.8228943E1,1.2904882E1,9.0000004E-1,1.5994936E2,2.8496904E1,7.769501E0,1.2965333E1,1.8584509E1,1.859845E1,2.0652834E1,1.8925753E1,1.7508298E2,3.290014E1,1.3729637E2,9.457001E0,4.8999996E0,5.4000366E1,1.7017017E2,-7.008337E-2,3.5404422E2,5.8000007E0,1.8E0,1.1792404E1,1.844242E1,2.2299997E1,2.654242E1,2.0000002E0,9.332788E0,2.0652834E1,1.5E0,-6.6106405E0,9.655485E1,1.1311168E1,4.1653337E0,2.0418695E1,2.0275383E1,1.5371583E1,1.6266666E2,3.4598077E2,3.1063208E2,5.9028325E0,3.4460284E2,1.3992416E1,3.9999995E0,1.7196585E1,6E-1,1.7238699E1,7.32588E1,1.4300001E1,3.144382E0,1.3296571E1,2.9069502E1,2.6625753E1,8.000001E-1,2.1707731E1,2.7396584E1,3.3514624E2,2.1023668E1,1.9071585E1,-4.082817E0,-1.1274607E1,8.805376E0,-4.3303714E0,-5.391792E0,2.1130135E0,9.343331E0,2.198419E0,-4.050699E0,2.4564807E0,-2.965348E-1,-5.2831507E0,-2.1018777E0,-5.3861775E0,2.3872962E0,-8.561213E-1,7.3544087E0,-1.3315979E0,8.48173E0,4.1803503E0,-2.3106863E0,6.780354E-1,6.449023E0,3.3647027E0,3.6571274E0,1.1385804E1,-6.069206E0,-8.8152355E-1,-1.1952724E0,5.3322983E0,-4.6281896E0,5.8164066E-1,7.375115E-1,8.463005E0,-2.9841762E0,-8.144655E0,3.559753E0,-2.0808735E0,-3.0990136E0,-7.46029E0,1.961217E0,-1.1312749E0,-5.0139756E0,1.1956536E0,-3.1484964E0,-6.6103578E0,-5.437261E0,-9.724289E0,1.3859459E0,-2.7851691E0,-3.1134312E0,-9.125196E0,1.2605667E0,-1.7394334E0,-5.4455227E-1,-8.2329445E0],"split_indices":[0,3,2,2,1,3,2,0,0,2,2,0,0,3,2,3,0,1,3,3,0,3,1,1,2,0,1,0,1,3,0,1,0,3,0,0,2,2,0,3,3,3,0,3,0,1,0,1,2,3,1,0,0,0,0,1,2,0,3,0,0,0,0,0,0,0,0,0,0,0,0,0,0,0,0,0,0,0,0,0,0,0,0,0,0,0,0,0,0,0,0,0,0,0,0,0,0,0,0,0,0,0,0,0,0,0,0,0,0,0,0,0,0,0,0,0,0],"split_type":[0,0,0,0,0,0,0,0,0,0,0,0,0,0,0,0,0,0,0,0,0,0,0,0,0,0,0,0,0,0,0,0,0,0,0,0,0,0,0,0,0,0,0,0,0,0,0,0,0,0,0,0,0,0,0,0,0,0,0,0,0,0,0,0,0,0,0,0,0,0,0,0,0,0,0,0,0,0,0,0,0,0,0,0,0,0,0,0,0,0,0,0,0,0,0,0,0,0,0,0,0,0,0,0,0,0,0,0,0,0,0,0,0,0,0,0,0],"sum_hessian":[2.385E3,1.322E3,1.063E3,7.57E2,5.65E2,5.72E2,4.91E2,1.42E2,6.15E2,4.31E2,1.34E2,3.67E2,2.05E2,4.3E2,6.1E1,5.5E1,8.7E1,3.52E2,2.63E2,2.26E2,2.05E2,5.6E1,7.8E1,7.1E1,2.96E2,4E0,2.01E2,3E2,1.3E2,3.3E1,2.8E1,5.3E1,2E0,1.4E1,7.3E1,2.75E2,7.7E1,1.22E2,1.41E2,1.3E1,2.13E2,2E1,1.85E2,5E1,6E0,4.2E1,3.6E1,5.5E1,1.6E1,4E1,2.56E2,2E0,2E0,1.87E2,1.4E1,1.8E2,1.2E2,6.8E1,6.2E1,2E0,3.1E1,2E0,2.6E1,5.1E1,2E0,8E0,6E0,1.5E1,5.8E1,1.8E1,2.57E2,4.4E1,3.3E1,7.3E1,4.9E1,5.5E1,8.6E1,2E0,1.1E1,1.83E2,3E1,9E0,1.1E1,6.4E1,1.21E2,4.5E1,5E0,5E0,1E0,3.3E1,9E0,2.8E1,8E0,4.7E1,8E0,1.3E1,3E0,1.3E1,2.7E1,2.32E2,2.4E1,1.28E2,5.9E1,1.1E1,3E0,1.02E2,7.8E1,7E1,5E1,4.5E1,2.3E1,5.4E1,8E0,1E0,1E0,1E0,3E1],"tree_param":{"num_deleted":"0","num_feature":"4","num_nodes":"117","size_leaf_vector":"1"}},{"base_weights":[-1.1561098E-2,8.942961E0,-4.7061014E0,1.2732984E1,-1.1529825E0,1.3694891E0,-7.9688272E0,1.7370266E1,9.631856E0,-1.2183488E1,1.7497365E0,5.954856E0,-2.1700988E0,-1.1977315E1,-3.3163714E0,1.6499657E1,1.9252794E1,1.7036583E-1,1.1411179E1,-7.1261196E0,-2.3595417E1,1.4329956E1,-6.7791975E-1,1.8192519E-1,9.198583E0,-5.0547085E0,2.76515E0,-9.211667E0,-1.9235653E1,3.0026677E0,-7.139394E0,1.4275108E1,2.765652E1,-8.180256E0,2.1627507E0,5.9594536E0,1.6932207E1,-2.230955E1,-3.7389917E0,-7.8266478E0,1.3228317E0,-5.958035E-1,2.4900833E1,-7.6489487E0,6.1208477E0,3.1271656E0,-1.4163707E1,6.2847896E0,1.7272926E1,1.4673645E0,-6.8973E0,-9.637833E0,5.0150332E0,-1.22045E1,-6.2176743E0,-1.4457541E1,-2.4348515E1,6.355616E0,-1.3209977E1,-5.4452934E0,-1.9568563E1,1.4017349E1,4.0608826E0,8.888311E0,-6.791594E0,1.9506323E0,-2.13548E0,3.8883257E0,-4.7652414E-1,5.247741E0,-2.3671327E0,-1.6232232E0,-7.382149E0,1.4642591E0,-2.7833524E0,1.1420314E1,-4.800489E0,-5.370978E0,8.608514E0,-7.394919E0,-1.9031937E0,1.4480322E1,1.1279769E0,-1.0745993E0,3.1541228E0,2.237105E0,-5.4190764E0,5.1994386E0,1.0364428E0,-1.0510594E0,7.5823393E0,9.442134E0,-2.1326643E-1,-1.5049899E0,-5.543926E0,-3.8899837E0,1.5763654E0,5.04565E0,8.681382E-2,-2.9075582E0,-5.520831E0,5.6441474E-1,-2.4537184E0,-4.706803E0,1.0048634E0,-7.4505715E0,1.458323E0,8.872945E-1,4.759138E0,-9.462063E-1,-8.660722E0,-2.8752735E0,-9.6325487E-1,-3.470314E0,-8.503978E0],"categories":[],"categories_nodes":[],"categories_segments":[],"categories_sizes":[],"default_left":[0,0,0,0,0,0,0,0,0,0,0,0,0,0,0,0,0,0,0,0,0,0,0,0,0,0,0,0,0,0,0,0,0,0,0,0,0,0,0,0,0,0,0,0,0,0,0,0,0,0,0,0,0,0,0,0,0,0,0,0,0,0,0,0,0,0,0,0,0,0,0,0,0,0,0,0,0,0,0,0,0,0,0,0,0,0,0,0,0,0,0,0,0,0,0,0,0,0,0,0,0,0,0,0,0,0,0,0,0,0,0,0,0,0,0],"id":2,"left_children":[1,3,5,7,9,11,13,15,17,19,21,23,25,27,29,31,-1,33,35,37,39,41,43,45,47,49,51,53,55,57,59,61,63,-1,65,67,69,71,73,-1,-1,75,77,79,81,83,85,87,89,91,93,95,97,99,101,103,105,107,109,111,113,-1,-1,-1,-1,-1,-1,-1,-1,-1,-1,-1,-1,-1,-1,-1,-1,-1,-1,-1,-1,-1,-1,-1,-1,-1,-1,-1,-1,-1,-1,-1,-1,-1,-1,-1,-1,-1,-1,-1,-1,-1,-1,-1,-1,-1,-1,-1,-1,-1,-1,-1,-1,-1,-1],"loss_changes":[1.0034324E5,3.1429305E4,3.1053715E4,8.418039E3,7.225471E3,8.907131E3,1.8963926E4,8.639492E3,6.058668E3,2.5444297E3,5.476455E3,4.473796E3,4.4272197E3,1.0803289E4,1.144809E4,5.43766E3,0E0,3.229649E3,9.019133E3,1.6651442E3,1.0926226E3,4.5904097E3,7.203373E3,3.7201582E3,3.4910684E3,2.3655537E3,3.257439E3,3.4904062E3,3.3124531E3,9.814427E3,6.105042E3,4.1145195E3,4.4380938E3,0E0,2.2613342E3,8.159086E3,2.2240977E3,9.981836E1,1.429862E3,0E0,0E0,8.35251E3,3.274666E3,1.5075347E3,7.4804507E3,3.655376E3,1.3994746E3,3.5039756E3,6.738295E3,2.8982827E3,3.2400537E3,9.604562E2,5.4616387E3,2.9052988E3,3.208349E3,1.807334E3,1.1301328E3,4.767044E3,4.790429E3,2.3830205E3,2.130204E3,0E0,0E0,0E0,0E0,0E0,0E0,0E0,0E0,0E0,0E0,0E0,0E0,0E0,0E0,0E0,0E0,0E0,0E0,0E0,0E0,0E0,0E0,0E0,0E0,0E0,0E0,0E0,0E0,0E0,0E0,0E0,0E0,0E0,0E0,0E0,0E0,0E0,0E0,0E0,0E0,0E0,0E0,0E0,0E0,0E0,0E0,0E0,0E0,0E0,0E0,0E0,0E0,0E0,0E0],"parents":[2147483647,0,0,1,1,2,2,3,3,4,4,5,5,6,6,7,7,8,8,9,9,10,10,11,11,12,12,13,13,14,14,15,15,17,17,18,18,19,19,20,20,21,21,22,22,23,23,24,24,25,25,26,26,27,27,28,28,29,29,30,30,31,31,32,32,34,34,35,35,36,36,37,37,38,38,41,41,42,42,43,43,44,44,45,45,46,46,47,47,48,48,49,49,50,50,51,51,52,52,53,53,54,54,55,55,56,56,57,57,58,58,59,59,60,60],"right_children":[2,4,6,8,10,12,14,16,18,20,22,24,26,28,30,32,-1,34,36,38,40,42,44,46,48,50,52,54,56,58,60,62,64,-1,66,68,70,72,74,-1,-1,76,78,80,82,84,86,88,90,92,94,96,98,100,102,104,106,108,110,112,114,-1,-1,-1,-1,-1,-1,-1,-1,-1,-1,-1,-1,-1,-1,-1,-1,-1,-1,-1,-1,-1,-1,-1,-1,-1,-1,-1,-1,-1,-1,-1,-1,-1,-1,-1,-1,-1,-1,-1,-1,-1,-1,-1,-1,-1,-1,-1,-1,-1,-1,-1,-1,-1,-1],"split_conditions":[1.2261166E1,8.000001E-1,1.6167967E1,1.4869351E1,5.640333E0,2.0163254E1,1.4930952E2,1.484318E1,2.542417E0,6.7000003E0,6.911167E0,1.5800751E1,1.5275893E2,2.537992E1,2.0482E1,3.1589597E2,1.9252794E1,1.5815435E1,1.6535661E2,1.9787718E1,3.290014E1,6.3882504E0,6.602477E1,1.5134083E1,1.9023099E2,1.1792404E1,2.2613256E1,5.63099E1,1.9995398E1,3.4598077E2,2.800837E1,4.7714653E0,1.11465845E1,-8.180256E0,2.5509243E1,4.2878918E1,3.1072817E1,1.2641076E1,1.784816E1,-7.8266478E0,1.3228317E0,1.2287555E1,1.4E0,7.3715835E0,8.3584145E1,1.3794502E1,9.693296E0,1.1988594E1,1.2074766E1,2.0482E1,1.47E1,1.4081478E1,1E-1,1.2E0,1.5800751E1,1.4096744E2,3.132575E1,3.0546347E2,2.2401142E1,1.7508298E2,2.7655524E2,1.4017349E1,4.0608826E0,8.888311E0,-6.791594E0,1.9506323E0,-2.13548E0,3.8883257E0,-4.7652414E-1,5.247741E0,-2.3671327E0,-1.6232232E0,-7.382149E0,1.4642591E0,-2.7833524E0,1.1420314E1,-4.800489E0,-5.370978E0,8.608514E0,-7.394919E0,-1.9031937E0,1.4480322E1,1.1279769E0,-1.0745993E0,3.1541228E0,2.237105E0,-5.4190764E0,5.1994386E0,1.0364428E0,-1.0510594E0,7.5823393E0,9.442134E0,-2.1326643E-1,-1.5049899E0,-5.543926E0,-3.8899837E0,1.5763654E0,5.04565E0,8.681382E-2,-2.9075582E0,-5.520831E0,5.6441474E-1,-2.4537184E0,-4.706803E0,1.0048634E0,-7.4505715E0,1.458323E0,8.872945E-1,4.759138E0,-9.462063E-1,-8.660722E0,-2.8752735E0,-9.6325487E-1,-3.470314E0,-8.503978E0],"split_indices":[0,1,2,2,0,0,3,2,0,1,0,0,3,0,0,3,0,2,3,3,2,0,3,0,3,2,0,3,2,3,2,3,0,0,2,3,2,2,2,0,0,2,1,0,3,0,2,2,2,0,1,2,1,1,0,3,0,3,2,3,3,0,0,0,0,0,0,0,0,0,0,0,0,0,0,0,0,0,0,0,0,0,0,0,0,0,0,0,0,0,0,0,0,0,0,0,0,0,0,0,0,0,0,0,0,0,0,0,0,0,0,0,0,0,0],"split_type":[0,0,0,0,0,0,0,0,0,0,0,0,0,0,0,0,0,0,0,0,0,0,0,0,0,0,0,0,0,0,0,0,0,0,0,0,0,0,0,0,0,0,0,0,0,0,0,0,0,0,0,0,0,0,0,0,0,0,0,0,0,0,0,0,0,0,0,0,0,0,0,0,0,0,0,0,0,0,0,0,0,0,0,0,0,0,0,0,0,0,0,0,0,0,0,0,0,0,0,0,0,0,0,0,0,0,0,0,0,0,0,0,0,0,0],"sum_hessian":[2.385E3,8.2E2,1.565E3,5.96E2,2.24E2,5.47E2,1.018E3,2.37E2,3.59E2,4.6E1,1.78E2,2.38E2,3.09E2,5.46E2,4.72E2,2.34E2,3E0,5.7E1,3.02E2,3.3E1,1.3E1,2.8E1,1.5E2,8.6E1,1.52E2,1.95E2,1.14E2,3.97E2,1.49E2,1.78E2,2.94E2,1.97E2,3.7E1,3E0,5.4E1,1.53E2,1.49E2,5E0,2.8E1,1.2E1,1E0,1.2E1,1.6E1,7.4E1,7.6E1,7.2E1,1.4E1,1.13E2,3.9E1,4.3E1,1.52E2,1.7E1,9.7E1,1.97E2,2E2,7.9E1,7E1,1.48E2,3E1,2.6E2,3.4E1,3E0,1.94E2,3.6E1,1E0,3.7E1,1.7E1,7.9E1,7.4E1,1.46E2,3E0,1E0,4E0,1.1E1,1.7E1,3E0,9E0,1E0,1.5E1,4E0,7E1,3E0,7.3E1,3.8E1,3.4E1,2E0,1.2E1,2.2E1,9.1E1,1.1E1,2.8E1,2E0,4.1E1,1.32E2,2E1,1.4E1,3E0,2.7E1,7E1,1.42E2,5.5E1,3.9E1,1.61E2,7.4E1,5E0,6.9E1,1E0,1.1E2,3.8E1,1.9E1,1.1E1,9E1,1.7E2,1.9E1,1.5E1],"tree_param":{"num_deleted":"0","num_feature":"4","num_nodes":"115","size_leaf_vector":"1"}},{"base_weights":[-2.4043561E-3,4.456713E0,-4.82307E0,1.2914377E0,7.6610003E0,-2.2805784E0,-1.024221E1,5.602774E0,-8.880625E-1,4.2560753E1,7.189967E0,-4.8830385E0,1.0818942E0,-1.4308952E1,-7.014116E0,1.1345092E1,1.835468E0,-4.9130514E-2,-8.996478E0,-2.7077374E0,1.5365897E1,8.282531E0,-3.747002E0,2.430328E0,-6.535297E0,1.1530983E1,3.2680058E-3,-6.9251294E0,-1.7477543E1,-4.4314613E0,-1.3080565E1,2.6858837E1,8.344757E0,2.9786112E0,-1.3610381E1,4.1953126E-1,-1.7337837E1,-1.1178257E1,4.8663507E0,1.2578713E1,6.2321253E0,2.090323E0,-1.8470959E1,1.1434093E1,-1.2734131E0,-5.314172E0,-1.0742808E1,1.3985497E0,1.5435041E1,9.7288746E-1,-1.3433043E1,-1.0517789E1,-3.7165215E0,-1.7709448E1,1.2395749E0,-8.298944E-1,-9.163211E0,-9.25876E0,-1.9434729E1,-5.1944346E0,1.0939343E1,-1.170214E0,4.069761E0,3.9748767E-1,1.0253154E1,-5.69499E0,1.0389664E0,-2.0367373E-2,4.8867273E0,-7.743677E0,-2.215855E0,2.5103178E0,-3.6072383E0,-1.9549702E0,5.5264373E0,2.5547402E0,8.349465E0,2.1590104E0,-1.2122786E0,1.2536068E0,-5.4815207E0,-7.846552E0,-3.7801178E0,-7.009188E-1,6.979731E0,-2.5998814E0,1.4441632E0,-1.665781E0,5.589402E0,-5.2693024E0,-1.748759E0,4.528096E0,-3.0741386E0,-3.9115987E0,5.19659E0,6.842217E-1,-1.9869329E0,-5.189466E0,2.1955543E0,-2.279128E0,2.0155656E0,-5.724863E0,-4.3706512E0,1.3873943E0,-2.3650882E0,-5.4875946E0,-1.14561E0,-3.7765465E0,1.0827065E0,-1.5372647E0,-6.6990495E0],"categories":[],"categories_nodes":[],"categories_segments":[],"categories_sizes":[],"default_left":[0,0,0,0,0,0,0,0,0,0,0,0,0,0,0,0,0,0,0,0,0,0,0,0,0,0,0,0,0,0,0,0,0,0,0,0,0,0,0,0,0,0,0,0,0,0,0,0,0,0,0,0,0,0,0,0,0,0,0,0,0,0,0,0,0,0,0,0,0,0,0,0,0,0,0,0,0,0,0,0,0,0,0,0,0,0,0,0,0,0,0,0,0,0,0,0,0,0,0,0,0,0,0,0,0,0,0,0,0,0,0],"id":3,"left_children":[1,3,5,7,9,11,13,15,17,19,21,23,25,27,29,31,33,35,37,-1,-1,39,41,43,45,47,49,51,53,55,57,59,61,63,65,67,69,71,73,75,77,79,81,83,85,87,89,91,93,95,97,-1,99,101,-1,103,105,107,109,-1,-1,-1,-1,-1,-1,-1,-1,-1,-1,-1,-1,-1,-1,-1,-1,-1,-1,-1,-1,-1,-1,-1,-1,-1,-1,-1,-1,-1,-1,-1,-1,-1,-1,-1,-1,-1,-1,-1,-1,-1,-1,-1,-1,-1,-1,-1,-1,-1,-1,-1,-1],"loss_changes":[5.131075E4,1.2566742E4,1.5780148E4,5.877824E3,9.820371E3,6.8483315E3,4.704418E3,4.522121E3,2.8293604E3,4.0357617E3,7.3081836E3,5.3447373E3,3.854528E3,3.6457734E3,3.1695469E3,3.6392236E3,2.3006125E3,3.07004E3,1.233977E3,0E0,0E0,4.801746E3,4.8517275E3,2.7490647E3,1.7925527E3,1.2442568E3,4.0648103E3,4.3832773E3,6.344375E2,2.4804856E3,1.3014062E3,6.1474805E3,4.592299E3,6.1457065E3,8.9135876E2,2.8553877E3,6.526909E2,6.62749E2,1.0458247E3,1.0793818E4,3.7648252E3,1.8198123E3,3.9220557E2,3.9646296E3,2.6968643E3,1.7077842E3,2.579083E3,1.7495543E3,1.4615933E3,2.9060261E3,1.8109746E3,0E0,1.9137678E3,2.0077344E2,0E0,3.2683494E3,3.0038438E3,1.7592803E3,7.9714844E2,0E0,0E0,0E0,0E0,0E0,0E0,0E0,0E0,0E0,0E0,0E0,0E0,0E0,0E0,0E0,0E0,0E0,0E0,0E0,0E0,0E0,0E0,0E0,0E0,0E0,0E0,0E0,0E0,0E0,0E0,0E0,0E0,0E0,0E0,0E0,0E0,0E0,0E0,0E0,0E0,0E0,0E0,0E0,0E0,0E0,0E0,0E0,0E0,0E0,0E0,0E0,0E0],"parents":[2147483647,0,0,1,1,2,2,3,3,4,4,5,5,6,6,7,7,8,8,9,9,10,10,11,11,12,12,13,13,14,14,15,15,16,16,17,17,18,18,21,21,22,22,23,23,24,24,25,25,26,26,27,27,28,28,29,29,30,30,31,31,32,32,33,33,34,34,35,35,36,36,37,37,38,38,39,39,40,40,41,41,42,42,43,43,44,44,45,45,46,46,47,47,48,48,49,49,50,50,52,52,53,53,55,55,56,56,57,57,58,58],"right_children":[2,4,6,8,10,12,14,16,18,20,22,24,26,28,30,32,34,36,38,-1,-1,40,42,44,46,48,50,52,54,56,58,60,62,64,66,68,70,72,74,76,78,80,82,84,86,88,90,92,94,96,98,-1,100,102,-1,104,106,108,110,-1,-1,-1,-1,-1,-1,-1,-1,-1,-1,-1,-1,-1,-1,-1,-1,-1,-1,-1,-1,-1,-1,-1,-1,-1,-1,-1,-1,-1,-1,-1,-1,-1,-1,-1,-1,-1,-1,-1,-1,-1,-1,-1,-1,-1,-1,-1,-1,-1,-1,-1,-1],"split_conditions":[1.7521584E1,1.3529033E2,1.9995398E1,1.484318E1,1.3729637E2,1.4096744E2,1.4374194E2,8.02575E0,1.18E1,8.669949E0,2.7748037E1,1.2979984E1,1.9002834E1,2.1023668E1,2.6525429E1,1.636324E1,1.2499207E2,1.2238062E2,7.962033E1,-2.7077374E0,1.5365897E1,6.040334E0,3.338182E2,5.728141E1,2.68695E1,1.31041975E1,3.3917715E2,4.352556E0,3.132575E1,2.7309084E1,3.1222647E2,1.01376915E1,3.77074E1,1.2238062E2,1.5225749E1,1.0000002E1,1E-1,1.0179489E0,1.3354917E1,5.052833E0,3.5404422E2,1.59E1,2.8496904E1,2.4759726E1,1.0799999E1,2.6692421E1,2.8332006E1,1.1013882E1,1.4189238E2,1.1400001E1,2.591533E1,-1.0517789E1,7.054612E1,2.7559084E1,1.2395749E0,3.3E0,1.6672421E2,2.4988719E2,2.7475807E1,-5.1944346E0,1.0939343E1,-1.170214E0,4.069761E0,3.9748767E-1,1.0253154E1,-5.69499E0,1.0389664E0,-2.0367373E-2,4.8867273E0,-7.743677E0,-2.215855E0,2.5103178E0,-3.6072383E0,-1.9549702E0,5.5264373E0,2.5547402E0,8.349465E0,2.1590104E0,-1.2122786E0,1.2536068E0,-5.4815207E0,-7.846552E0,-3.7801178E0,-7.009188E-1,6.979731E0,-2.5998814E0,1.4441632E0,-1.665781E0,5.589402E0,-5.2693024E0,-1.748759E0,4.528096E0,-3.0741386E0,-3.9115987E0,5.19659E0,6.842217E-1,-1.9869329E0,-5.189466E0,2.1955543E0,-2.279128E0,2.0155656E0,-5.724863E0,-4.3706512E0,1.3873943E0,-2.3650882E0,-5.4875946E0,-1.14561E0,-3.7765465E0,1.0827065E0,-1.5372647E0,-6.6990495E0],"split_indices":[0,3,2,2,3,3,3,0,1,2,2,2,0,0,2,3,3,3,3,0,0,0,3,3,0,2,3,3,0,0,3,2,3,3,0,1,1,3,0,0,3,1,2,3,2,0,0,2,3,1,0,0,3,0,0,1,3,3,2,0,0,0,0,0,0,0,0,0,0,0,0,0,0,0,0,0,0,0,0,0,0,0,0,0,0,0,0,0,0,0,0,0,0,0,0,0,0,0,0,0,0,0,0,0,0,0,0,0,0,0,0],"split_type":[0,0,0,0,0,0,0,0,0,0,0,0,0,0,0,0,0,0,0,0,0,0,0,0,0,0,0,0,0,0,0,0,0,0,0,0,0,0,0,0,0,0,0,0,0,0,0,0,0,0,0,0,0,0,0,0,0,0,0,0,0,0,0,0,0,0,0,0,0,0,0,0,0,0,0,0,0,0,0,0,0,0,0,0,0,0,0,0,0,0,0,0,0,0,0,0,0,0,0,0,0,0,0,0,0,0,0,0,0,0,0],"sum_hessian":[2.385E3,1.239E3,1.146E3,6.24E2,6.15E2,7.81E2,3.65E2,2.09E2,4.15E2,7E0,6.08E2,4.4E2,3.41E2,1.6E2,2.05E2,8.2E1,1.27E2,3.77E2,3.8E1,1E0,6E0,5.53E2,5.5E1,8.1E1,3.59E2,3.1E1,3.1E2,4.9E1,1.11E2,1.45E2,6E1,1.2E1,7E1,1.19E2,8E0,3.68E2,9E0,3.3E1,5E0,1.77E2,3.76E2,4E1,1.5E1,2.3E1,5.8E1,2.8E2,7.9E1,9E0,2.2E1,2.9E2,2E1,4E0,4.5E1,1.1E2,1E0,8.3E1,6.2E1,3.9E1,2.1E1,2E0,1E1,2.1E1,4.9E1,1.14E2,5E0,6E0,2E0,3.58E2,1E1,4E0,5E0,1E0,3.2E1,3E0,2E0,1.41E2,3.6E1,3.44E2,3.2E1,3.7E1,3E0,5E0,1E1,1.1E1,1.2E1,2.6E1,3.2E1,2.78E2,2E0,3.2E1,4.7E1,4E0,5E0,1E0,2.1E1,2.48E2,4.2E1,1.7E1,3E0,3.3E1,1.2E1,7.3E1,3.7E1,4.7E1,3.6E1,2.2E1,4E1,3.1E1,8E0,4E0,1.7E1],"tree_param":{"num_deleted":"0","num_feature":"4","num_nodes":"111","size_leaf_vector":"1"}},{"base_weights":[-8.8215675E-3,4.6399097E0,-2.5283802E0,7.0738335E0,-1.7968848E0,2.049281E0,-3.967925E0,8.73285E-1,8.349049E0,2.7570733E-1,-1.0138303E1,-7.5059958E0,2.7613847E0,-3.5138311E0,-1.6166424E1,4.6651864E0,-1.0827691E1,1.4249246E1,6.1358347E0,-6.5551653E0,2.766714E0,9.968117E0,-1.1840357E1,-1.2497044E1,3.3100994E0,6.6912494E0,3.0608848E-1,-4.895386E0,-4.188983E-1,-2.3991117E0,-1.7305847E1,9.161967E-1,1.8504606E1,5.9001904E0,-1.3266119E1,5.1389737E0,1.8649498E1,1.1730901E1,4.2889285E0,2.3015366E1,-8.932335E0,2.2709646E1,8.4542924E-1,-8.53005E0,-1.9332645E1,-1.8933672E1,3.5318248E0,1.1740673E1,-1.0163286E1,8.040839E0,-3.68018E0,-1.1135445E1,1.2868965E0,-3.7403996E0,-9.219668E0,5.487681E0,-1.9573319E0,-2.5976488E-1,-1.7750822E1,1.4781194E0,-2.44622E0,6.7157114E-1,1.2426602E1,5.3800383E0,-1.226616E0,-5.588174E0,-1.3301789E0,6.1705837E0,-1.3845747E0,6.1352973E0,-7.097855E-2,2.490514E0,1.0774724E1,-1.0365729E0,2.225858E0,8.141011E0,1.5977029E0,-4.5234356E0,-7.2431123E-1,-1.5345635E0,9.765887E0,-4.717414E-1,2.3991456E0,-3.2748563E0,1.20808E0,-7.0995803E0,-3.671466E0,-2.623957E0,-6.3345494E0,5.0185766E0,-4.5723405E0,5.3450003E0,-8.226319E-2,-4.891063E0,1.2386227E0,2.0137212E0,8.444137E0,-1.8776526E0,5.2499623E0,2.5608096E0,-5.353448E0,-1.673513E0,8.856791E-1,-1.4722748E0,-2.404286E-1,-3.8588867E0,-1.9599011E0,-5.703677E0,2.1550524E0,-3.7084088E-2,-3.5369763E0,-5.579326E0,-1.9612976E0],"categories":[],"categories_nodes":[],"categories_segments":[],"categories_sizes":[],"default_left":[0,0,0,0,0,0,0,0,0,0,0,0,0,0,0,0,0,0,0,0,0,0,0,0,0,0,0,0,0,0,0,0,0,0,0,0,0,0,0,0,0,0,0,0,0,0,0,0,0,0,0,0,0,0,0,0,0,0,0,0,0,0,0,0,0,0,0,0,0,0,0,0,0,0,0,0,0,0,0,0,0,0,0,0,0,0,0,0,0,0,0,0,0,0,0,0,0,0,0,0,0,0,0,0,0,0,0,0,0,0,0,0,0],"id":4,"left_children":[1,3,5,7,9,11,13,15,17,19,21,23,25,27,29,31,33,35,37,39,41,-1,43,45,47,49,51,53,55,-1,57,59,61,63,65,67,69,71,73,75,77,79,81,83,85,87,89,91,93,95,97,99,101,103,105,107,109,-1,111,-1,-1,-1,-1,-1,-1,-1,-1,-1,-1,-1,-1,-1,-1,-1,-1,-1,-1,-1,-1,-1,-1,-1,-1,-1,-1,-1,-1,-1,-1,-1,-1,-1,-1,-1,-1,-1,-1,-1,-1,-1,-1,-1,-1,-1,-1,-1,-1,-1,-1,-1,-1,-1,-1],"loss_changes":[2.7958354E4,1.3157047E4,1.0209062E4,4.808088E3,3.9964058E3,2.5451406E3,6.468449E3,4.7092524E3,6.5070625E3,3.183066E3,3.788688E3,1.444941E3,3.3364995E3,4.8595566E3,2.5255664E2,4.133754E3,1.1388059E3,5.3961484E3,3.7627705E3,3.720289E3,5.2301E3,0E0,9.511714E2,1.9239644E3,1.1416191E3,1.8912168E3,2.4158267E3,3.8911855E3,3.2093228E3,0E0,2.4798242E2,2.3684717E3,6.2444526E3,5.5412195E2,1.00646924E3,7.018119E3,3.1349688E3,7.248866E3,6.7896807E3,1.4709937E2,1.846321E3,3.4531787E3,2.1913865E3,1.0327275E3,1.0996631E2,1.042168E2,1.7414165E3,4.4289984E2,4.1834003E2,2.962833E3,9.833882E2,2.396042E3,2.2802427E3,2.1297236E3,1.5310342E3,3.1695525E3,5.046998E3,0E0,2.1080176E2,0E0,0E0,0E0,0E0,0E0,0E0,0E0,0E0,0E0,0E0,0E0,0E0,0E0,0E0,0E0,0E0,0E0,0E0,0E0,0E0,0E0,0E0,0E0,0E0,0E0,0E0,0E0,0E0,0E0,0E0,0E0,0E0,0E0,0E0,0E0,0E0,0E0,0E0,0E0,0E0,0E0,0E0,0E0,0E0,0E0,0E0,0E0,0E0,0E0,0E0,0E0,0E0,0E0,0E0],"parents":[2147483647,0,0,1,1,2,2,3,3,4,4,5,5,6,6,7,7,8,8,9,9,10,10,11,11,12,12,13,13,14,14,15,15,16,16,17,17,18,18,19,19,20,20,22,22,23,23,24,24,25,25,26,26,27,27,28,28,30,30,31,31,32,32,33,33,34,34,35,35,36,36,37,37,38,38,39,39,40,40,41,41,42,42,43,43,44,44,45,45,46,46,47,47,48,48,49,49,50,50,51,51,52,52,53,53,54,54,55,55,56,56,58,58],"right_children":[2,4,6,8,10,12,14,16,18,20,22,24,26,28,30,32,34,36,38,40,42,-1,44,46,48,50,52,54,56,-1,58,60,62,64,66,68,70,72,74,76,78,80,82,84,86,88,90,92,94,96,98,100,102,104,106,108,110,-1,112,-1,-1,-1,-1,-1,-1,-1,-1,-1,-1,-1,-1,-1,-1,-1,-1,-1,-1,-1,-1,-1,-1,-1,-1,-1,-1,-1,-1,-1,-1,-1,-1,-1,-1,-1,-1,-1,-1,-1,-1,-1,-1,-1,-1,-1,-1,-1,-1,-1,-1,-1,-1,-1,-1],"split_conditions":[1.25195E1,8.000001E-1,1.4869351E1,3.1903334E0,1.0500001E1,1.3794502E1,3.2138947E1,3.338182E2,5.7903333E0,6.3882504E0,1.0239453E1,1E-1,2.0163254E1,1.7394893E2,3E-1,3.193225E2,1.4799459E1,9.0912605E1,4.387189E1,1.2287555E1,6.840334E0,9.968117E0,1.5101506E2,1.4586633E2,3.9999995E0,3E0,3.240104E1,2.711117E1,1.65695E1,-2.3991117E0,1.5225749E1,2.1749481E1,1.8403333E0,6.5075E-1,2.1707731E1,1.636324E1,2.4385183E1,3.8198723E1,1.1177225E2,5.9028325E0,5.868406E1,2.4E0,6.3999996E0,2.0500002E1,2.3358425E1,4.139685E1,2.2443613E2,1.3276144E1,1.1901798E1,1.7E0,1.28E1,8.367751E0,2.2613256E1,1.2692786E2,2.8554918E1,1.2629917E1,3.3514624E2,-2.5976488E-1,2.8046585E1,1.4781194E0,-2.44622E0,6.7157114E-1,1.2426602E1,5.3800383E0,-1.226616E0,-5.588174E0,-1.3301789E0,6.1705837E0,-1.3845747E0,6.1352973E0,-7.097855E-2,2.490514E0,1.0774724E1,-1.0365729E0,2.225858E0,8.141011E0,1.5977029E0,-4.5234356E0,-7.2431123E-1,-1.5345635E0,9.765887E0,-4.717414E-1,2.3991456E0,-3.2748563E0,1.20808E0,-7.0995803E0,-3.671466E0,-2.623957E0,-6.3345494E0,5.0185766E0,-4.5723405E0,5.3450003E0,-8.226319E-2,-4.891063E0,1.2386227E0,2.0137212E0,8.444137E0,-1.8776526E0,5.2499623E0,2.5608096E0,-5.353448E0,-1.673513E0,8.856791E-1,-1.4722748E0,-2.404286E-1,-3.8588867E0,-1.9599011E0,-5.703677E0,2.1550524E0,-3.7084088E-2,-3.5369763E0,-5.579326E0,-1.9612976E0],"split_indices":[0,1,2,0,1,0,2,3,0,0,2,1,0,3,1,3,2,3,3,2,0,0,3,3,1,1,3,0,0,0,0,2,0,0,2,3,2,3,3,0,3,1,1,1,2,3,3,2,2,1,1,3,0,3,0,0,3,0,0,0,0,0,0,0,0,0,0,0,0,0,0,0,0,0,0,0,0,0,0,0,0,0,0,0,0,0,0,0,0,0,0,0,0,0,0,0,0,0,0,0,0,0,0,0,0,0,0,0,0,0,0,0,0],"split_type":[0,0,0,0,0,0,0,0,0,0,0,0,0,0,0,0,0,0,0,0,0,0,0,0,0,0,0,0,0,0,0,0,0,0,0,0,0,0,0,0,0,0,0,0,0,0,0,0,0,0,0,0,0,0,0,0,0,0,0,0,0,0,0,0,0,0,0,0,0,0,0,0,0,0,0,0,0,0,0,0,0,0,0,0,0,0,0,0,0,0,0,0,0,0,0,0,0,0,0,0,0,0,0,0,0,0,0,0,0,0,0,0,0],"sum_hessian":[2.385E3,8.38E2,1.547E3,6.08E2,2.3E2,3.7E2,1.177E3,1.04E2,5.04E2,1.85E2,4.5E1,2.5E1,3.45E2,1.136E3,4.1E1,7.9E1,2.5E1,1.36E2,3.68E2,4.9E1,1.36E2,1E0,4.4E1,1.7E1,8E0,1.32E2,2.13E2,7.85E2,3.51E2,6E0,3.5E1,6.3E1,1.6E1,3E0,2.2E1,4.5E1,9.1E1,9E1,2.78E2,3E0,4.6E1,1.1E1,1.25E2,3.2E1,1.2E1,1.2E1,5E0,5E0,3E0,1.17E2,1.5E1,1.6E1,1.97E2,6.21E2,1.64E2,7.2E1,2.79E2,1E0,3.4E1,4.4E1,1.9E1,1E1,6E0,1E0,2E0,1.3E1,9E0,1.7E1,2.8E1,8.3E1,8E0,8E1,1E1,8E1,1.98E2,2E0,1E0,2.3E1,2.3E1,3E0,8E0,9.4E1,3.1E1,2.7E1,5E0,6E0,6E0,3E0,9E0,3E0,2E0,3E0,2E0,2E0,1E0,1.11E2,6E0,1.4E1,1E0,4E0,1.2E1,3.8E1,1.59E2,4.44E2,1.77E2,6.8E1,9.6E1,4E0,6.8E1,2.36E2,4.3E1,3.1E1,3E0],"tree_param":{"num_deleted":"0","num_feature":"4","num_nodes":"113","size_leaf_vector":"1"}},{"base_weights":[4.278938E-3,3.2338216E0,-1.8714252E0,4.7913146E0,-8.0343133E-1,9.260283E-1,-3.380884E0,3.516015E1,4.5908914E0,-1.0358487E1,3.2945445E-1,-5.1554675E0,1.2012889E0,-3.0118668E0,-1.1559342E1,3.15515E0,1.1960627E1,-7.3835526E0,4.97534E0,8.977715E0,-1.2343908E1,-6.121366E0,1.8859478E0,2.5365107E0,-2.0743937E0,-4.6143284E0,-1.1086942E0,-1.9666592E1,-1.0188406E1,2.0432465E0,-9.339085E0,2.8012855E0,7.1905107E0,3.9846063E0,5.5365372E-2,-4.1356564E0,-1.7911543E1,1.437946E1,-7.4721246E0,3.3730867E0,-4.750665E0,1.2385201E0,1.08708E1,9.318278E0,-3.5780509E0,-3.3677262E-1,-5.227393E0,1.4766277E0,-4.130158E0,-6.662728E0,-1.424489E0,-2.1193887E-1,-1.0695557E1,-7.507788E0,-1.3599936E0,1.0709465E0,-2.9593198E0,3.6939936E0,1.5079199E0,-2.4829485E0,1.5539807E0,-2.8553877E0,-6.9050956E0,6.99645E0,-5.256924E-1,1.5621827E0,-2.9383547E0,5.5056695E-2,2.42197E0,1.3581339E0,-3.8200963E0,-7.7749856E-2,2.3423095E0,-1.1485534E0,4.6840315E0,-4.082249E-1,7.8882003E0,-8.461947E-1,-5.107421E0,-6.7314997E0,4.4410545E-1,-5.76241E0,-1.4588044E0,-2.5711591E0,8.17627E-1,-1.0825588E0,-4.088429E0,-2.471867E0,-4.0753956E0],"categories":[],"categories_nodes":[],"categories_segments":[],"categories_sizes":[],"default_left":[0,0,0,0,0,0,0,0,0,0,0,0,0,0,0,0,0,0,0,0,0,0,0,0,0,0,0,0,0,0,0,0,0,0,0,0,0,0,0,0,0,0,0,0,0,0,0,0,0,0,0,0,0,0,0,0,0,0,0,0,0,0,0,0,0,0,0,0,0,0,0,0,0,0,0,0,0,0,0,0,0,0,0,0,0,0,0,0,0],"id":5,"left_children":[1,3,5,7,9,11,13,15,17,19,21,-1,23,25,27,-1,-1,29,31,33,35,37,39,41,43,45,47,49,51,-1,53,55,57,-1,-1,59,61,63,65,67,69,71,73,75,77,79,81,83,85,-1,-1,-1,87,-1,-1,-1,-1,-1,-1,-1,-1,-1,-1,-1,-1,-1,-1,-1,-1,-1,-1,-1,-1,-1,-1,-1,-1,-1,-1,-1,-1,-1,-1,-1,-1,-1,-1,-1,-1],"loss_changes":[1.4459645E4,5.51842E3,6.3793184E3,3.691415E3,2.6554854E3,2.6628125E3,2.925834E3,4.483008E1,2.9369766E3,1.1089736E3,2.2204895E3,0E0,2.2927397E3,2.8616602E3,2.6643848E2,0E0,0E0,6.187577E2,2.922373E3,1.1109416E2,1.02273706E3,1.2981869E3,1.7728073E3,4.0107686E3,2.6372036E3,1.3356719E3,3.3728367E3,8.419336E1,1.7517676E2,0E0,1.2435254E3,3.052765E3,3.2861729E3,0E0,0E0,4.6718964E2,3.808667E2,4.7361908E2,1.2583103E3,2.1872654E3,2.5017715E3,3.1798809E3,3.5454517E3,3.2988955E3,1.3268927E3,2.6436992E3,2.18071E3,2.9467734E3,9.3674805E2,0E0,0E0,0E0,1.4351074E2,0E0,0E0,0E0,0E0,0E0,0E0,0E0,0E0,0E0,0E0,0E0,0E0,0E0,0E0,0E0,0E0,0E0,0E0,0E0,0E0,0E0,0E0,0E0,0E0,0E0,0E0,0E0,0E0,0E0,0E0,0E0,0E0,0E0,0E0,0E0,0E0],"parents":[2147483647,0,0,1,1,2,2,3,3,4,4,5,5,6,6,7,7,8,8,9,9,10,10,12,12,13,13,14,14,17,17,18,18,19,19,20,20,21,21,22,22,23,23,24,24,25,25,26,26,27,27,28,28,30,30,31,31,32,32,35,35,36,36,37,37,38,38,39,39,40,40,41,41,42,42,43,43,44,44,45,45,46,46,47,47,48,48,52,52],"right_children":[2,4,6,8,10,12,14,16,18,20,22,-1,24,26,28,-1,-1,30,32,34,36,38,40,42,44,46,48,50,52,-1,54,56,58,-1,-1,60,62,64,66,68,70,72,74,76,78,80,82,84,86,-1,-1,-1,88,-1,-1,-1,-1,-1,-1,-1,-1,-1,-1,-1,-1,-1,-1,-1,-1,-1,-1,-1,-1,-1,-1,-1,-1,-1,-1,-1,-1,-1,-1,-1,-1,-1,-1,-1,-1],"split_conditions":[1.2965333E1,8.000001E-1,1.6167967E1,1.0179489E0,1.2977418E1,1.3223667E1,3.2138947E1,5.2153335E0,-1.1200833E0,1.31041975E1,5.640333E0,-5.1554675E0,2.7E0,1.5101506E2,8.367751E0,3.15515E0,1.1960627E1,1.1901798E1,1.7103459E2,5.9028325E0,7.0691276E0,1.3797912E1,2.3452555E1,1.2E0,1.711117E1,1.5935013E1,2.46695E1,1.837158E1,1.636324E1,2.0432465E0,1.405845E1,1.5503929E2,1.4186923E1,3.9846063E0,5.5365372E-2,2.4014996E1,1.7462784E1,4.4319997E0,2.8153334E0,1.7771753E1,4.8999996E0,1.9247847E2,1.2371645E1,1.51884165E1,3.193225E2,1.3354917E1,1.7841196E1,1.4348668E1,3.244927E2,-6.662728E0,-1.424489E0,-2.1193887E-1,1.47E1,-7.507788E0,-1.3599936E0,1.0709465E0,-2.9593198E0,3.6939936E0,1.5079199E0,-2.4829485E0,1.5539807E0,-2.8553877E0,-6.9050956E0,6.99645E0,-5.256924E-1,1.5621827E0,-2.9383547E0,5.5056695E-2,2.42197E0,1.3581339E0,-3.8200963E0,-7.7749856E-2,2.3423095E0,-1.1485534E0,4.6840315E0,-4.082249E-1,7.8882003E0,-8.461947E-1,-5.107421E0,-6.7314997E0,4.4410545E-1,-5.76241E0,-1.4588044E0,-2.5711591E0,8.17627E-1,-1.0825588E0,-4.088429E0,-2.471867E0,-4.0753956E0],"split_indices":[0,1,2,3,3,0,2,0,0,2,0,0,1,3,3,0,0,2,3,0,3,2,2,1,0,3,0,0,3,0,2,3,2,0,0,2,2,0,0,2,1,3,2,2,3,0,3,0,3,0,0,0,1,0,0,0,0,0,0,0,0,0,0,0,0,0,0,0,0,0,0,0,0,0,0,0,0,0,0,0,0,0,0,0,0,0,0,0,0],"split_type":[0,0,0,0,0,0,0,0,0,0,0,0,0,0,0,0,0,0,0,0,0,0,0,0,0,0,0,0,0,0,0,0,0,0,0,0,0,0,0,0,0,0,0,0,0,0,0,0,0,0,0,0,0,0,0,0,0,0,0,0,0,0,0,0,0,0,0,0,0,0,0,0,0,0,0,0,0,0,0,0,0,0,0,0,0,0,0,0,0],"sum_hessian":[2.385E3,8.76E2,1.509E3,6.32E2,2.44E2,5.29E2,9.8E2,3E0,6.29E2,2.5E1,2.19E2,7E0,5.22E2,9.39E2,4.1E1,1E0,2E0,1.9E1,6.1E2,2E0,2.3E1,4.2E1,1.77E2,3.71E2,1.51E2,5.09E2,4.3E2,4E0,3.7E1,2E0,1.7E1,3.09E2,3.01E2,1E0,1E0,1E1,1.3E1,2E0,4E1,1.45E2,3.2E1,3.22E2,4.9E1,1.7E1,1.34E2,6.4E1,4.45E2,2.32E2,1.98E2,3E0,1E0,2E0,3.5E1,3E0,1.4E1,2.92E2,1.7E1,8.8E1,2.13E2,7E0,3E0,6E0,7E0,1E0,1E0,6E0,3.4E1,8.7E1,5.8E1,1.5E1,1.7E1,2.63E2,5.9E1,1.2E1,3.7E1,1.1E1,6E0,1.28E2,6E0,4E0,6E1,1E1,4.35E2,2.5E1,2.07E2,1.89E2,9E0,2.1E1,1.4E1],"tree_param":{"num_deleted":"0","num_feature":"4","num_nodes":"89","size_leaf_vector":"1"}},{"base_weights":[-6.662573E-3,1.5700532E0,-2.1306489E0,-5.1582026E0,1.9802407E0,-1.2464896E0,-6.022784E0,2.2425048E0,-1.24299555E1,2.916206E0,-7.682414E-1,-5.518185E-1,-5.986019E0,-9.775088E0,-4.8764014E0,7.2257514E0,-6.544623E0,5.5263762E0,-1.3693352E1,1.53589E1,2.3468566E0,-1.6831366E1,-3.1548014E-1,-1.2240692E0,6.2929435E0,7.381638E0,-7.455375E0,4.1650696E0,-1.0668951E1,-6.386619E-1,-7.076905E0,1.6072153E1,-6.298628E0,-1.5769199E1,-3.5541496E-1,-4.913414E0,-1.6163553E1,-1.6613056E1,1.9161554E1,6.216285E-1,4.314816E0,-6.7783537E0,-1.0184041E1,-1.6103493E1,3.636609E-2,-1.9725685E0,2.7135692E0,-1.0719174E1,7.8892727E0,-9.710798E0,1.5005152E1,-1.5111408E1,-4.836195E0,-7.194775E0,-1.5864813E1,6.4081626E0,-6.6559877E0,-1.9205837E1,-5.907148E0,6.964584E0,-1.2857342E0,-6.0243177E0,4.1397488E-1,-5.9680266E0,7.27787E-1,-3.0434058E0,2.3584642E0,3.52423E0,-4.1195946E0,-7.840555E0,-3.4048629E0,-9.118071E0,5.776348E0,9.147566E0,2.8605952E0,1.1695981E-1,1.1503866E1,5.2696247E0,1.1284871E0,-2.7903444E-1,-3.5546412E0,-5.578457E-1,-6.4287596E0,1.2180091E-1,-4.2597604E0,-4.415588E-1,-3.037689E0,2.7200204E-1,6.6261454E0,5.656815E-2,-3.8815303E0,3.4074873E-1,3.5307815E0,-4.347338E0,-9.8609394E-1,6.7423935E0,5.7509995E-1,-3.5592122E0,-7.5235796E0,4.342663E0,-2.131121E0,-4.8938994E0,-1.6125867E0,-5.09462E0,-1.6088059E0,2.8362107E0,-5.419288E0,1.4164091E0,-3.6881258E0,-1.0261964E0,-6.2916603E0,-2.3071482E0,1.8897635E-1],"categories":[],"categories_nodes":[],"categories_segments":[],"categories_sizes":[],"default_left":[0,0,0,0,0,0,0,0,0,0,0,0,0,0,0,0,0,0,0,0,0,0,0,0,0,0,0,0,0,0,0,0,0,0,0,0,0,0,0,0,0,0,0,0,0,0,0,0,0,0,0,0,0,0,0,0,0,0,0,0,0,0,0,0,0,0,0,0,0,0,0,0,0,0,0,0,0,0,0,0,0,0,0,0,0,0,0,0,0,0,0,0,0,0,0,0,0,0,0,0,0,0,0,0,0,0,0,0,0,0,0,0,0],"id":6,"left_children":[1,3,5,7,9,11,13,15,17,19,21,23,25,27,29,31,33,-1,35,37,39,41,43,45,47,49,51,-1,53,55,57,59,61,63,65,67,69,71,73,75,77,-1,79,81,83,85,87,89,91,93,95,97,99,101,103,105,107,109,111,-1,-1,-1,-1,-1,-1,-1,-1,-1,-1,-1,-1,-1,-1,-1,-1,-1,-1,-1,-1,-1,-1,-1,-1,-1,-1,-1,-1,-1,-1,-1,-1,-1,-1,-1,-1,-1,-1,-1,-1,-1,-1,-1,-1,-1,-1,-1,-1,-1,-1,-1,-1,-1,-1],"loss_changes":[7.993875E3,3.7912036E3,3.4922607E3,4.279347E3,3.3258892E3,2.7294006E3,7.610288E2,1.7988269E3,1.8113413E3,6.793159E3,2.3874282E3,3.3437148E3,2.1370693E3,1.0574692E3,1.3569534E3,3.2119268E3,8.5078766E2,0E0,7.664219E2,5.424621E3,3.1310684E3,1.1468213E2,1.7837255E3,1.953531E3,1.8497681E3,1.5790605E3,1.8519609E3,0E0,6.440122E2,2.2052078E3,1.2485869E3,2.426204E3,1.1918292E3,4.9850586E2,8.8413367E2,1.6305636E3,1.1434839E3,3.0565784E3,3.8538525E3,4.295421E3,3.0932134E3,0E0,8.141278E1,4.9116833E2,1.663292E3,2.2548467E3,3.690615E3,1.4768219E2,1.5588325E3,7.519983E1,7.3901074E2,4.7927734E2,3.2995115E3,3.6025586E2,9.666748E1,1.9597402E3,1.8540425E3,1.5132007E2,1.0423936E3,0E0,0E0,0E0,0E0,0E0,0E0,0E0,0E0,0E0,0E0,0E0,0E0,0E0,0E0,0E0,0E0,0E0,0E0,0E0,0E0,0E0,0E0,0E0,0E0,0E0,0E0,0E0,0E0,0E0,0E0,0E0,0E0,0E0,0E0,0E0,0E0,0E0,0E0,0E0,0E0,0E0,0E0,0E0,0E0,0E0,0E0,0E0,0E0,0E0,0E0,0E0,0E0,0E0,0E0],"parents":[2147483647,0,0,1,1,2,2,3,3,4,4,5,5,6,6,7,7,8,8,9,9,10,10,11,11,12,12,13,13,14,14,15,15,16,16,18,18,19,19,20,20,21,21,22,22,23,23,24,24,25,25,26,26,28,28,29,29,30,30,31,31,32,32,33,33,34,34,35,35,36,36,37,37,38,38,39,39,40,40,42,42,43,43,44,44,45,45,46,46,47,47,48,48,49,49,50,50,51,51,52,52,53,53,54,54,55,55,56,56,57,57,58,58],"right_children":[2,4,6,8,10,12,14,16,18,20,22,24,26,28,30,32,34,-1,36,38,40,42,44,46,48,50,52,-1,54,56,58,60,62,64,66,68,70,72,74,76,78,-1,80,82,84,86,88,90,92,94,96,98,100,102,104,106,108,110,112,-1,-1,-1,-1,-1,-1,-1,-1,-1,-1,-1,-1,-1,-1,-1,-1,-1,-1,-1,-1,-1,-1,-1,-1,-1,-1,-1,-1,-1,-1,-1,-1,-1,-1,-1,-1,-1,-1,-1,-1,-1,-1,-1,-1,-1,-1,-1,-1,-1,-1,-1,-1,-1,-1],"split_conditions":[1.8925753E1,9.332788E0,2.2691425E1,2.0418695E1,1.3E0,1.18E1,6.2392986E1,6.5048857E0,1.0179489E0,1.5935013E1,1.4000001E0,6.7000003E0,1.1431063E1,1.9071585E1,2.3486166E1,1.23945E1,1.51884165E1,5.5263762E0,5.9028325E0,1.3450708E1,1.7103459E2,8.37575E0,1.06048975E1,2.005439E2,1.0636766E1,1.59E1,9.655485E1,4.1650696E0,3.240104E1,8.000001E-1,2.290743E1,3E-1,1E-1,1E-1,8.669501E0,2.1980644E1,9.082E0,1E-1,1.8486622E1,1.2E0,1.7852782E2,-6.7783537E0,8.850751E0,8.102834E0,1.8577833E1,2.1707731E1,2.1650938E1,6.8999996E0,1.3327089E2,2.501117E1,2.2299997E1,1.9602652E1,1.1232873E2,2.303156E1,4.226897E1,3.544923E2,1.5275893E2,1.0450021E2,1.1900001E1,6.964584E0,-1.2857342E0,-6.0243177E0,4.1397488E-1,-5.9680266E0,7.27787E-1,-3.0434058E0,2.3584642E0,3.52423E0,-4.1195946E0,-7.840555E0,-3.4048629E0,-9.118071E0,5.776348E0,9.147566E0,2.8605952E0,1.1695981E-1,1.1503866E1,5.2696247E0,1.1284871E0,-2.7903444E-1,-3.5546412E0,-5.578457E-1,-6.4287596E0,1.2180091E-1,-4.2597604E0,-4.415588E-1,-3.037689E0,2.7200204E-1,6.6261454E0,5.656815E-2,-3.8815303E0,3.4074873E-1,3.5307815E0,-4.347338E0,-9.8609394E-1,6.7423935E0,5.7509995E-1,-3.5592122E0,-7.5235796E0,4.342663E0,-2.131121E0,-4.8938994E0,-1.6125867E0,-5.09462E0,-1.6088059E0,2.8362107E0,-5.419288E0,1.4164091E0,-3.6881258E0,-1.0261964E0,-6.2916603E0,-2.3071482E0,1.8897635E-1],"split_indices":[0,3,2,2,1,1,3,3,3,3,1,1,2,0,0,0,2,0,0,2,3,0,3,3,2,1,3,0,3,1,2,1,1,1,0,2,0,1,2,1,3,0,0,0,0,2,2,1,3,0,1,2,3,2,2,3,3,3,1,0,0,0,0,0,0,0,0,0,0,0,0,0,0,0,0,0,0,0,0,0,0,0,0,0,0,0,0,0,0,0,0,0,0,0,0,0,0,0,0,0,0,0,0,0,0,0,0,0,0,0,0,0,0],"split_type":[0,0,0,0,0,0,0,0,0,0,0,0,0,0,0,0,0,0,0,0,0,0,0,0,0,0,0,0,0,0,0,0,0,0,0,0,0,0,0,0,0,0,0,0,0,0,0,0,0,0,0,0,0,0,0,0,0,0,0,0,0,0,0,0,0,0,0,0,0,0,0,0,0,0,0,0,0,0,0,0,0,0,0,0,0,0,0,0,0,0,0,0,0,0,0,0,0,0,0,0,0,0,0,0,0,0,0,0,0,0,0,0,0],"sum_hessian":[2.385E3,1.369E3,1.016E3,7.8E1,1.291E3,8.29E2,1.87E2,3.9E1,3.9E1,9.63E2,3.28E2,7.24E2,1.05E2,4.2E1,1.45E2,2.5E1,1.4E1,1E0,3.8E1,4.1E1,9.22E2,8E0,3.2E2,6.6E2,6.4E1,1E1,9.5E1,1E0,4.1E1,5E1,9.5E1,1.5E1,1E1,5E0,9E0,9E0,2.9E1,4E0,3.7E1,4.92E2,4.3E2,3E0,5E0,6E0,3.14E2,5.55E2,1.05E2,5E0,5.9E1,3E0,7E0,2.3E1,7.2E1,2.6E1,1.5E1,2.3E1,2.7E1,7E0,8.8E1,1.1E1,4E0,3E0,7E0,4E0,1E0,4E0,5E0,3E0,6E0,8E0,2.1E1,3E0,1E0,1.6E1,2.1E1,4.9E2,2E0,1.6E1,4.14E2,1E0,4E0,2E0,4E0,3.07E2,7E0,5.24E2,3.1E1,9.7E1,8E0,1E0,4E0,2.2E1,3.7E1,1E0,2E0,4E0,3E0,1.9E1,4E0,7E0,6.5E1,3E0,2.3E1,1.3E1,2E0,2.1E1,2E0,9E0,1.8E1,1E0,6E0,6.9E1,1.9E1],"tree_param":{"num_deleted":"0","num_feature":"4","num_nodes":"113","size_leaf_vector":"1"}},{"base_weights":[-1.8905256E-2,2.388499E0,-9.350725E-1,2.1065621E0,3.2674553E1,7.4106187E-1,-2.2018592E0,2.8176994E0,-7.486389E-1,1.3455549E1,5.5466666E0,-6.7896585E0,1.0665321E0,-1.8618569E0,-9.101866E0,2.6100082E0,2.911313E1,7.745835E-1,-1.5918477E1,-1.7361913E0,4.232191E0,-4.825924E0,-2.3509207E1,1.4106436E1,7.6695365E-1,6.1021984E-1,-3.0909944E0,-1.9816774E1,-2.137375E0,2.9273794E0,-2.5066017E1,1.0079224E1,2.349043E0,-4.5791918E-1,2.4268454E1,-3.9258156E0,-1.9479828E1,-1.0037382E1,7.8703594E0,-9.045906E0,-1.5332371E0,1.8197E1,-2.9055047E0,-4.336922E0,1.2088917E0,-7.7233696E-1,1.063589E1,-9.598561E0,-2.7599125E0,-2.1656418E1,-3.3997562E0,-1.0173958E1,3.3390896E0,6.841973E-1,3.4407065E0,-1.0907534E1,4.709418E0,-3.0742058E-1,4.658223E0,2.1044564E0,9.342463E0,-2.8277285E0,1.8861032E0,-2.6931915E0,-6.9704623E0,-1.4684861E0,-4.5613675E0,4.6155334E0,-3.6862533E0,1.1899365E0,7.6986427E0,4.3267655E0,-1.9376645E0,1.7283775E-1,1.6823114E0,2.2015592E-1,-1.7948875E0,4.335889E0,-3.639198E0,-3.7657208E0,5.7003576E-1,-5.6699104E0,-7.8589374E-1,-9.2644005E0,-3.91E0,6.182556E-1,-2.148146E0,-4.0428123E0,1.2672906E0,5.697196E0,-3.171799E-1],"categories":[],"categories_nodes":[],"categories_segments":[],"categories_sizes":[],"default_left":[0,0,0,0,0,0,0,0,0,0,0,0,0,0,0,0,0,0,0,0,0,0,0,0,0,0,0,0,0,0,0,0,0,0,0,0,0,0,0,0,0,0,0,0,0,0,0,0,0,0,0,0,0,0,0,0,0,0,0,0,0,0,0,0,0,0,0,0,0,0,0,0,0,0,0,0,0,0,0,0,0,0,0,0,0,0,0,0,0,0,0],"id":7,"left_children":[1,3,5,7,9,11,13,15,17,-1,19,21,23,25,27,29,31,33,35,-1,-1,37,39,41,43,45,47,49,51,53,55,-1,-1,57,59,61,63,65,67,-1,-1,69,-1,71,73,75,77,79,81,83,85,87,89,-1,-1,-1,-1,-1,-1,-1,-1,-1,-1,-1,-1,-1,-1,-1,-1,-1,-1,-1,-1,-1,-1,-1,-1,-1,-1,-1,-1,-1,-1,-1,-1,-1,-1,-1,-1,-1,-1],"loss_changes":[5.2647593E3,5.5496714E3,3.6728257E3,1.3279868E3,1.7332847E3,1.8332555E3,2.2938813E3,2.7802896E3,3.0393518E3,0E0,3.7272128E2,9.043618E2,2.7823108E3,2.8580964E3,3.3903425E3,4.6408354E3,1.18683105E2,3.4858638E3,4.3604712E2,0E0,0E0,1.9978164E3,2.1260107E2,1.7333657E3,1.5841609E3,4.346726E3,1.3265581E3,4.699995E2,1.3103217E3,2.8187368E3,3.3327087E3,0E0,0E0,1.0578967E3,4.9305957E2,2.839398E2,1.4635034E2,4.8358276E2,1.552377E3,0E0,0E0,1.3854751E3,0E0,2.322337E3,1.7920747E3,2.1704897E3,3.477584E3,1.0428096E3,1.3065532E3,8.7026904E2,7.636433E1,6.2745764E2,1.2586553E3,0E0,0E0,0E0,0E0,0E0,0E0,0E0,0E0,0E0,0E0,0E0,0E0,0E0,0E0,0E0,0E0,0E0,0E0,0E0,0E0,0E0,0E0,0E0,0E0,0E0,0E0,0E0,0E0,0E0,0E0,0E0,0E0,0E0,0E0,0E0,0E0,0E0,0E0],"parents":[2147483647,0,0,1,1,2,2,3,3,4,4,5,5,6,6,7,7,8,8,10,10,11,11,12,12,13,13,14,14,15,15,16,16,17,17,18,18,21,21,22,22,23,23,24,24,25,25,26,26,27,27,28,28,29,29,30,30,33,33,34,34,35,35,36,36,37,37,38,38,41,41,43,43,44,44,45,45,46,46,47,47,48,48,49,49,50,50,51,51,52,52],"right_children":[2,4,6,8,10,12,14,16,18,-1,20,22,24,26,28,30,32,34,36,-1,-1,38,40,42,44,46,48,50,52,54,56,-1,-1,58,60,62,64,66,68,-1,-1,70,-1,72,74,76,78,80,82,84,86,88,90,-1,-1,-1,-1,-1,-1,-1,-1,-1,-1,-1,-1,-1,-1,-1,-1,-1,-1,-1,-1,-1,-1,-1,-1,-1,-1,-1,-1,-1,-1,-1,-1,-1,-1,-1,-1,-1,-1],"split_conditions":[1.4869351E1,1.484318E1,1.6042416E1,2.4E0,8.492415E0,1.5256526E1,3.381849E2,3.5828357E2,3.2032758E2,1.3455549E1,2.407158E1,3.565859E2,1.5496736E1,1E-1,3.4856155E2,3.544923E2,5.640333E0,3.0115002E2,2.7999997E0,-1.7361913E0,4.232191E0,2.8535596E2,6.840334E0,1.3354917E1,1.06048975E1,2.1039983E2,1.6784082E1,2.3684084E1,3E-1,3.244927E2,1E-1,1.0079224E1,2.349043E0,1.4799459E1,5.1E0,2.0611168E1,3.368929E2,1E-1,1.51884165E1,-9.045906E0,-1.5332371E0,9.0912605E1,-2.9055047E0,1.0179489E0,1.4348668E1,2.1707731E1,3.338182E2,2.0362936E2,1.4949756E1,1.9829433E1,2.4244497E1,2.208825E1,7E-1,6.841973E-1,3.4407065E0,-1.0907534E1,4.709418E0,-3.0742058E-1,4.658223E0,2.1044564E0,9.342463E0,-2.8277285E0,1.8861032E0,-2.6931915E0,-6.9704623E0,-1.4684861E0,-4.5613675E0,4.6155334E0,-3.6862533E0,1.1899365E0,7.6986427E0,4.3267655E0,-1.9376645E0,1.7283775E-1,1.6823114E0,2.2015592E-1,-1.7948875E0,4.335889E0,-3.639198E0,-3.7657208E0,5.7003576E-1,-5.6699104E0,-7.8589374E-1,-9.2644005E0,-3.91E0,6.182556E-1,-2.148146E0,-4.0428123E0,1.2672906E0,5.697196E0,-3.171799E-1],"split_indices":[2,2,0,1,0,2,3,3,3,0,0,3,2,1,3,3,0,3,1,0,0,3,0,0,3,3,0,0,1,3,1,0,0,2,1,0,3,1,2,0,0,3,0,3,0,2,3,3,2,2,0,0,1,0,0,0,0,0,0,0,0,0,0,0,0,0,0,0,0,0,0,0,0,0,0,0,0,0,0,0,0,0,0,0,0,0,0,0,0,0,0],"split_type":[0,0,0,0,0,0,0,0,0,0,0,0,0,0,0,0,0,0,0,0,0,0,0,0,0,0,0,0,0,0,0,0,0,0,0,0,0,0,0,0,0,0,0,0,0,0,0,0,0,0,0,0,0,0,0,0,0,0,0,0,0,0,0,0,0,0,0,0,0,0,0,0,0,0,0,0,0,0,0,0,0,0,0,0,0,0,0,0,0,0,0],"sum_hessian":[2.385E3,6.57E2,1.728E3,6.52E2,5E0,7.44E2,9.84E2,5.22E2,1.3E2,3E0,2E0,3E1,7.14E2,9.39E2,4.5E1,5.19E2,3E0,1.19E2,1.1E1,1E0,1E0,2.8E1,2E0,1.5E1,6.99E2,3.12E2,6.27E2,1.7E1,2.8E1,5.14E2,5E0,2E0,1E0,1.14E2,5E0,3E0,8E0,2E1,8E0,1E0,1E0,1.3E1,2E0,5.5E1,6.44E2,2.75E2,3.7E1,2.9E1,5.98E2,1.5E1,2E0,1.1E1,1.7E1,4.79E2,3.5E1,4E0,1E0,1.11E2,3E0,2E0,3E0,2E0,1E0,3E0,5E0,1.1E1,9E0,6E0,2E0,5E0,8E0,5E0,5E1,5.64E2,8E1,2.14E2,6.1E1,3.2E1,5E0,2.3E1,6E0,4E0,5.94E2,6E0,9E0,1E0,1E0,9E0,2E0,3E0,1.4E1],"tree_param":{"num_deleted":"0","num_feature":"4","num_nodes":"91","size_leaf_vector":"1"}},{"base_weights":[-1.1800573E-2,7.180223E-1,-1.6425134E0,4.013268E-1,7.359053E0,-6.2178606E-1,-4.4040723E0,7.8227407E-1,-3.4785361E0,1.668614E1,2.9915566E-2,1.4599657E0,-2.7400563E0,-1.843748E1,-3.7197542E0,2.7117403E0,-2.909637E-1,-1.1051086E1,-1.5431155E-1,1.891123E1,-8.177511E0,3.7953947E0,-5.952311E0,-9.719056E0,2.4301186E0,-1.8127798E1,-2.3785868E0,-2.1064861E1,3.8723376E-1,-8.730013E0,-2.1606972E0,9.019629E0,2.0110621E0,-6.638887E0,1.0337976E-1,-2.5796008E0,-1.5051818E1,4.537757E0,-3.2797854E0,3.9259155E0,2.4604357E1,-3.5957134E0,1.487298E1,-1.2899827E1,2.0093307E-1,-1.1825124E1,5.1762543E0,-7.3406327E-1,6.087372E0,-6.9878244E0,-5.198601E0,5.7150793E0,-2.615782E0,-6.315365E-1,-7.0417995E0,-1.2027639E1,-2.0013373E0,9.589214E0,-2.9059381E0,4.3494425E0,1.5083776E-1,5.3086954E-1,7.1334825E0,-3.4357584E0,1.0873935E0,3.0745575E0,-4.4215985E-2,-4.9696937E0,3.5186684E0,-6.9114223E0,-2.136932E0,5.1583135E-1,7.1766315E0,-1.2834231E0,3.5297444E0,4.7665944E0,-3.364364E0,9.414144E0,1.3899468E0,-2.4545672E0,1.2983987E-1,7.1828313E0,-2.3979676E-1,-4.363051E0,-2.0911446E-1,1.7476943E0,-9.125683E-1,1.4868389E0,-4.8195577E0,-1.1904315E0,2.9701724E0,5.296305E0,8.2568276E-1,-3.6223733E0,1.2830029E0,-5.054808E-1,-1.7534077E0,6.6104627E-1,-3.7783053E0,1.8432722E0,-2.2509325E0,-6.6770864E-1,3.984858E0,-1.9138925E0,-4.607507E-1],"categories":[],"categories_nodes":[],"categories_segments":[],"categories_sizes":[],"default_left":[0,0,0,0,0,0,0,0,0,0,0,0,0,0,0,0,0,0,0,0,0,0,0,0,0,0,0,0,0,0,0,0,0,0,0,0,0,0,0,0,0,0,0,0,0,0,0,0,0,0,0,0,0,0,0,0,0,0,0,0,0,0,0,0,0,0,0,0,0,0,0,0,0,0,0,0,0,0,0,0,0,0,0,0,0,0,0,0,0,0,0,0,0,0,0,0,0,0,0,0,0,0,0,0,0],"id":8,"left_children":[1,3,5,7,9,11,13,15,17,19,21,23,25,27,29,31,33,35,37,39,-1,41,43,45,47,49,51,53,-1,55,57,59,61,63,65,67,69,71,73,75,77,79,81,83,85,87,-1,89,91,-1,93,-1,95,-1,-1,97,99,101,103,-1,-1,-1,-1,-1,-1,-1,-1,-1,-1,-1,-1,-1,-1,-1,-1,-1,-1,-1,-1,-1,-1,-1,-1,-1,-1,-1,-1,-1,-1,-1,-1,-1,-1,-1,-1,-1,-1,-1,-1,-1,-1,-1,-1,-1,-1],"loss_changes":[2.8408328E3,3.4651973E3,2.0775352E3,2.3306077E3,5.126463E3,2.3852454E3,1.8424766E3,2.9723528E3,3.547668E3,3.742245E3,9.9120715E2,2.9844019E3,1.4475513E3,4.936931E2,1.4730913E3,2.2492183E3,2.3111973E3,1.4185342E3,1.4667117E3,2.6334307E3,0E0,2.264121E3,7.293379E2,1.4537971E3,2.9206667E3,2.795824E2,1.3866135E3,3.157976E2,0E0,9.744182E2,1.3150737E3,2.37235E3,2.3917825E3,2.7093782E3,2.2148435E3,3.1960854E3,1.6721978E3,2.1441187E3,9.515287E2,1.9893967E3,2.9671377E3,3.1762415E2,1.5827273E3,1.503219E2,2.0012076E2,1.5738472E3,0E0,4.716716E3,4.4649175E3,0E0,2.4709439E2,0E0,7.746183E2,0E0,0E0,2.696997E2,7.631424E2,4.2232446E2,6.517489E2,0E0,0E0,0E0,0E0,0E0,0E0,0E0,0E0,0E0,0E0,0E0,0E0,0E0,0E0,0E0,0E0,0E0,0E0,0E0,0E0,0E0,0E0,0E0,0E0,0E0,0E0,0E0,0E0,0E0,0E0,0E0,0E0,0E0,0E0,0E0,0E0,0E0,0E0,0E0,0E0,0E0,0E0,0E0,0E0,0E0,0E0],"parents":[2147483647,0,0,1,1,2,2,3,3,4,4,5,5,6,6,7,7,8,8,9,9,10,10,11,11,12,12,13,13,14,14,15,15,16,16,17,17,18,18,19,19,21,21,22,22,23,23,24,24,25,25,26,26,27,27,29,29,30,30,31,31,32,32,33,33,34,34,35,35,36,36,37,37,38,38,39,39,40,40,41,41,42,42,43,43,44,44,45,45,47,47,48,48,50,50,52,52,55,55,56,56,57,57,58,58],"right_children":[2,4,6,8,10,12,14,16,18,20,22,24,26,28,30,32,34,36,38,40,-1,42,44,46,48,50,52,54,-1,56,58,60,62,64,66,68,70,72,74,76,78,80,82,84,86,88,-1,90,92,-1,94,-1,96,-1,-1,98,100,102,104,-1,-1,-1,-1,-1,-1,-1,-1,-1,-1,-1,-1,-1,-1,-1,-1,-1,-1,-1,-1,-1,-1,-1,-1,-1,-1,-1,-1,-1,-1,-1,-1,-1,-1,-1,-1,-1,-1,-1,-1,-1,-1,-1,-1,-1,-1],"split_conditions":[2.0275383E1,1.9721298E1,4.8999996E0,1.8864824E1,1.6323668E1,1.5671582E1,5.4E0,1.23945E1,1.2629917E1,3.5721414E2,2.7232E1,2.065848E1,1.6115332E1,2.5812277E1,1.23945E1,1.8749844E1,1.3794502E1,4.621583E0,2.1677834E1,2.1567474E1,-8.177511E0,2.2767418E1,1.6111792E2,1.4554916E1,8.7924185E0,4E-1,1.6204918E1,3.3570006E0,3.8723376E-1,2.6525429E1,1.2965333E1,5E-1,1.8751125E1,3E-1,1.4171585E1,1.9211996E1,1E-1,4.6E0,3.073003E2,5E-1,3.1589597E2,2E-1,5E-1,2.9577833E1,2.8332006E1,3.1903334E0,5.1762543E0,3.404115E2,1.04945E1,-6.9878244E0,1.5896584E1,5.7150793E0,2.6044699E1,-6.315365E-1,-7.0417995E0,2.0418695E1,8.600001E0,1.2166717E2,9.1E0,4.3494425E0,1.5083776E-1,5.3086954E-1,7.1334825E0,-3.4357584E0,1.0873935E0,3.0745575E0,-4.4215985E-2,-4.9696937E0,3.5186684E0,-6.9114223E0,-2.136932E0,5.1583135E-1,7.1766315E0,-1.2834231E0,3.5297444E0,4.7665944E0,-3.364364E0,9.414144E0,1.3899468E0,-2.4545672E0,1.2983987E-1,7.1828313E0,-2.3979676E-1,-4.363051E0,-2.0911446E-1,1.7476943E0,-9.125683E-1,1.4868389E0,-4.8195577E0,-1.1904315E0,2.9701724E0,5.296305E0,8.2568276E-1,-3.6223733E0,1.2830029E0,-5.054808E-1,-1.7534077E0,6.6104627E-1,-3.7783053E0,1.8432722E0,-2.2509325E0,-6.6770864E-1,3.984858E0,-1.9138925E0,-4.607507E-1],"split_indices":[2,2,1,2,0,0,1,0,0,3,0,2,0,2,0,3,0,0,0,3,0,0,3,0,0,1,0,0,0,2,0,1,2,1,0,2,1,1,3,1,3,1,1,0,0,0,0,3,0,0,0,0,2,0,0,2,1,3,1,0,0,0,0,0,0,0,0,0,0,0,0,0,0,0,0,0,0,0,0,0,0,0,0,0,0,0,0,0,0,0,0,0,0,0,0,0,0,0,0,0,0,0,0,0,0],"split_type":[0,0,0,0,0,0,0,0,0,0,0,0,0,0,0,0,0,0,0,0,0,0,0,0,0,0,0,0,0,0,0,0,0,0,0,0,0,0,0,0,0,0,0,0,0,0,0,0,0,0,0,0,0,0,0,0,0,0,0,0,0,0,0,0,0,0,0,0,0,0,0,0,0,0,0,0,0,0,0,0,0,0,0,0,0,0,0,0,0,0,0,0,0,0,0,0,0,0,0,0,0,0,0,0,0],"sum_hessian":[2.385E3,1.648E3,7.37E2,1.574E3,7.4E1,5.39E2,1.98E2,1.434E3,1.4E2,3.2E1,4.2E1,2.72E2,2.67E2,8E0,1.9E2,5.12E2,9.22E2,4.2E1,9.8E1,3.1E1,1E0,2.6E1,1.6E1,2.1E1,2.51E2,5E0,2.62E2,7E0,1E0,4.4E1,1.46E2,5E1,4.62E2,5.3E1,8.69E2,1.4E1,2.8E1,3.9E1,5.9E1,9E0,2.2E1,1.6E1,1E1,7E0,9E0,2E1,1E0,1.35E2,1.16E2,3E0,2E0,2E0,2.6E2,1E0,6E0,2.9E1,1.5E1,8E0,1.38E2,3E1,2E1,4.58E2,4E0,3.6E1,1.7E1,2E1,8.49E2,7E0,7E0,1.3E1,1.5E1,3.5E1,4E0,5.6E1,3E0,5E0,4E0,1.6E1,6E0,7E0,9E0,6E0,4E0,6E0,1E0,3E0,6E0,4E0,1.6E1,1.04E2,3.1E1,2.5E1,9.1E1,1E0,1E0,2.03E2,5.7E1,1E0,2.8E1,6E0,9E0,2E0,6E0,3.8E1,1E2],"tree_param":{"num_deleted":"0","num_feature":"4","num_nodes":"105","size_leaf_vector":"1"}},{"base_weights":[-3.5665557E-3,2.2855973E0,-4.034925E-1,9.165252E0,6.5329826E-1,-1.1925115E1,-2.9459763E-1,5.130527E0,2.3079243E1,-4.1778846E0,2.563944E0,-1.8059576E1,1.1710423E0,3.774595E-1,-1.5214192E0,-2.2874472E0,1.3207093E1,3.8877186E1,8.227594E0,1.11357565E1,-6.4594426E0,6.1349273E0,7.3399675E-1,1.6486107E0,-2.0480434E1,1.1721151E1,-2.9015484E0,2.3935908E-1,1.0802148E1,-1.0742905E0,-7.069167E0,-1.6037252E1,8.361665E0,2.4739616E1,4.45304E0,1.3347069E1,7.7984166E-1,-4.544622E0,1.3043228E1,1.659265E1,-6.514975E0,-1.0744144E1,6.5737885E-1,2.7196333E0,2.4206081E1,-2.5325714E1,1.3034463E0,-6.565251E0,-7.5590634E-1,6.254821E0,-2.3495398E0,1.0981411E-1,1.0515127E1,1.843703E1,-6.267976E0,6.415966E0,-1.4281409E0,-1.3373302E1,-2.8432271E0,1.5847354E-1,-9.093514E0,3.8197398E0,-4.8838687E0,8.142714E0,1.0680428E-1,4.1093206E0,-2.8169446E0,7.717168E0,1.3587074E0,-2.393728E-1,1.286339E1,-1.4557632E0,-6.335816E0,-2.4936373E0,2.6955268E0,1.430657E0,-3.3589272E0,-4.0530624E0,8.79862E0,-9.028948E0,-2.3676236E0,6.625223E-2,4.0757117E0,6.905123E-2,-5.0377316E0,5.506094E0,-3.1201026E0,4.428653E-1,8.019874E0,-2.1794136E0,-1.9264442E-1,-3.4007943E0,2.4266458E0,-1.4280713E0,-2.6837605E-1,-4.4984503E0,2.8585968E0,-1.6919307E0,9.7876865E-1],"categories":[],"categories_nodes":[],"categories_segments":[],"categories_sizes":[],"default_left":[0,0,0,0,0,0,0,0,0,0,0,0,0,0,0,0,0,0,0,0,0,0,0,0,0,0,0,0,0,0,0,0,0,0,0,0,0,0,0,0,0,0,0,0,0,0,0,0,0,0,0,0,0,0,0,0,0,0,0,0,0,0,0,0,0,0,0,0,0,0,0,0,0,0,0,0,0,0,0,0,0,0,0,0,0,0,0,0,0,0,0,0,0,0,0,0,0,0,0],"id":9,"left_children":[1,3,5,7,9,11,13,15,17,19,21,23,25,27,29,31,33,35,37,39,41,43,45,-1,47,49,-1,51,53,55,57,59,61,63,65,-1,-1,-1,67,69,-1,71,73,75,77,79,81,-1,-1,-1,-1,83,85,87,89,91,93,95,97,-1,-1,-1,-1,-1,-1,-1,-1,-1,-1,-1,-1,-1,-1,-1,-1,-1,-1,-1,-1,-1,-1,-1,-1,-1,-1,-1,-1,-1,-1,-1,-1,-1,-1,-1,-1,-1,-1,-1,-1],"loss_changes":[2.185296E3,3.980539E3,2.5459272E3,3.6990518E3,2.669148E3,1.5475684E3,1.6611056E3,3.2654458E3,3.199517E3,2.9369253E3,1.3481823E3,8.5384863E2,9.1411914E2,1.8718439E3,1.7610427E3,4.380371E3,2.5146982E3,1.3097471E3,1.2107351E3,2.3323242E3,2.2025918E3,4.254449E3,2.080888E3,0E0,2.474043E2,8.7722516E2,0E0,1.7107352E3,2.3311453E3,1.7610968E3,1.3739441E3,3.0900386E3,2.038211E3,6.348037E2,2.176187E3,0E0,0E0,0E0,7.472219E2,4.605376E3,0E0,2.6482222E3,2.166157E3,1.7644205E3,2.5215186E3,1.19921875E1,1.8053701E3,0E0,0E0,0E0,0E0,2.5894585E3,2.814025E3,1.6489946E3,2.8979782E1,9.8258655E2,1.1193452E3,9.227417E2,5.818781E2,0E0,0E0,0E0,0E0,0E0,0E0,0E0,0E0,0E0,0E0,0E0,0E0,0E0,0E0,0E0,0E0,0E0,0E0,0E0,0E0,0E0,0E0,0E0,0E0,0E0,0E0,0E0,0E0,0E0,0E0,0E0,0E0,0E0,0E0,0E0,0E0,0E0,0E0,0E0,0E0],"parents":[2147483647,0,0,1,1,2,2,3,3,4,4,5,5,6,6,7,7,8,8,9,9,10,10,11,11,12,12,13,13,14,14,15,15,16,16,17,17,18,18,19,19,20,20,21,21,22,22,24,24,25,25,27,27,28,28,29,29,30,30,31,31,32,32,33,33,34,34,38,38,39,39,41,41,42,42,43,43,44,44,45,45,46,46,51,51,52,52,53,53,54,54,55,55,56,56,57,57,58,58],"right_children":[2,4,6,8,10,12,14,16,18,20,22,24,26,28,30,32,34,36,38,40,42,44,46,-1,48,50,-1,52,54,56,58,60,62,64,66,-1,-1,-1,68,70,-1,72,74,76,78,80,82,-1,-1,-1,-1,84,86,88,90,92,94,96,98,-1,-1,-1,-1,-1,-1,-1,-1,-1,-1,-1,-1,-1,-1,-1,-1,-1,-1,-1,-1,-1,-1,-1,-1,-1,-1,-1,-1,-1,-1,-1,-1,-1,-1,-1,-1,-1,-1,-1,-1],"split_conditions":[1.2904882E1,4.387189E1,1.2984975E1,3.8198723E1,1.0963314E2,2.0863253E1,2.1677834E1,1.2009083E1,1.1183201E1,5.3445E0,9.579917E0,2.0762495E1,1.5E0,2.1459084E1,2.42E1,1.0883676E1,1.9246584E1,1.0711166E1,1.1431063E1,1.01545074E2,1.7696583E1,8.492415E0,9.977834E0,1.6486107E0,1.35E1,1.2979984E1,-2.9015484E0,3.5828357E2,2.5381737E2,1.3797912E1,1.9803272E1,7.3715835E0,3.551524E1,3.9999995E0,1.0636766E1,1.3347069E1,7.7984166E-1,-4.544622E0,1.1570515E1,7.568892E1,-6.514975E0,8.6749535E1,1.0799999E1,3.2869595E2,7.9932966E0,9.715335E0,1.2641076E1,-6.565251E0,-7.5590634E-1,6.254821E0,-2.3495398E0,3.5721414E2,2.2104116E1,1.6071491E1,3.0657122E1,2.2694502E1,1.5530151E1,2.711117E1,2.6625753E1,1.5847354E-1,-9.093514E0,3.8197398E0,-4.8838687E0,8.142714E0,1.0680428E-1,4.1093206E0,-2.8169446E0,7.717168E0,1.3587074E0,-2.393728E-1,1.286339E1,-1.4557632E0,-6.335816E0,-2.4936373E0,2.6955268E0,1.430657E0,-3.3589272E0,-4.0530624E0,8.79862E0,-9.028948E0,-2.3676236E0,6.625223E-2,4.0757117E0,6.905123E-2,-5.0377316E0,5.506094E0,-3.1201026E0,4.428653E-1,8.019874E0,-2.1794136E0,-1.9264442E-1,-3.4007943E0,2.4266458E0,-1.4280713E0,-2.6837605E-1,-4.4984503E0,2.8585968E0,-1.6919307E0,9.7876865E-1],"split_indices":[2,3,2,3,3,0,0,0,2,0,0,3,1,0,1,2,0,0,2,3,0,0,0,0,1,2,0,3,3,2,2,0,3,1,2,0,0,0,2,3,0,3,2,3,2,0,2,0,0,0,0,3,2,2,2,0,2,0,0,0,0,0,0,0,0,0,0,0,0,0,0,0,0,0,0,0,0,0,0,0,0,0,0,0,0,0,0,0,0,0,0,0,0,0,0,0,0,0,0],"split_type":[0,0,0,0,0,0,0,0,0,0,0,0,0,0,0,0,0,0,0,0,0,0,0,0,0,0,0,0,0,0,0,0,0,0,0,0,0,0,0,0,0,0,0,0,0,0,0,0,0,0,0,0,0,0,0,0,0,0,0,0,0,0,0,0,0,0,0,0,0,0,0,0,0,0,0,0,0,0,0,0,0,0,0,0,0,0,0,0,0,0,0,0,0,0,0,0,0,0,0],"sum_hessian":[2.385E3,3.54E2,2.031E3,6.7E1,2.87E2,1.8E1,2.013E3,5.3E1,1.4E1,8.1E1,2.06E2,1.2E1,6E0,1.301E3,7.12E2,2.8E1,2.5E1,6E0,8E0,1E1,7.1E1,6.9E1,1.37E2,1E0,1.1E1,3E0,3E0,1.285E3,1.6E1,6.6E2,5.2E1,1.2E1,1.6E1,1E1,1.5E1,5E0,1E0,1E0,7E0,9E0,1E0,4.4E1,2.7E1,5.9E1,1E1,2E0,1.35E2,1E1,1E0,2E0,1E0,1.27E3,1.5E1,1.1E1,5E0,2.9E1,6.31E2,2E1,3.2E1,6E0,6E0,1.4E1,2E0,9E0,1E0,9E0,6E0,2E0,5E0,6E0,3E0,2.9E1,1.5E1,1.3E1,1.4E1,5.2E1,7E0,1E0,9E0,1E0,1E0,1.25E2,1E1,1.262E3,8E0,1.1E1,4E0,4E0,7E0,4E0,1E0,2E0,2.7E1,8.6E1,5.45E2,1.9E1,1E0,2.2E1,1E1],"tree_param":{"num_deleted":"0","num_feature":"4","num_nodes":"99","size_leaf_vector":"1"}},{"base_weights":[5.857303E-5,8.268084E-1,-7.8812766E-1,9.9819916E-1,-8.557444E0,-6.387533E0,-4.6803355E-1,2.501934E-1,2.6154323E0,1.0918554E1,-1.3782299E1,-1.1463757E1,4.285994E0,-7.1773297E-1,4.8518806E0,4.2449862E-1,-1.0998818E1,2.1174617E0,2.1911673E1,-6.522281E0,7.355599E0,-2.037212E1,1.6943932E0,-1.3647096E1,5.002466E0,7.410883E0,-5.28219E0,-3.9327613E-1,-8.540003E0,9.585777E0,-5.4582458E0,6.838351E-1,-5.8049045E0,2.9436803E0,-1.378276E1,-6.9491844E0,2.5672116E0,5.510237E1,-3.867405E0,-8.925715E0,-1.552083E1,4.5040708E0,-8.718586E0,4.084393E0,-1.4695209E1,4.197199E0,-2.989297E0,9.532685E0,-1.868145E0,-4.16204E0,2.3800728E0,3.3278263E-1,-2.3024843E0,-2.1508247E1,-5.0607195E0,-7.564337E0,1.1300483E1,-1.5858548E1,1.9675906E-1,-7.800042E-2,7.810166E-1,-3.3170834E0,-5.7017542E-2,-5.9369073E0,-7.849516E-1,7.365664E-1,-4.6744375E0,5.571873E0,6.959758E-1,7.4160943E0,2.193728E1,-5.499219E0,5.0118484E0,1.8717762E0,-5.58956E0,-3.0596046E0,-6.417446E-1,-4.9613166E0,-1.6464757E0,-1.7198727E0,7.8623086E-1,3.1508863E0,-4.621216E-1,-8.04081E-1,8.5234456E-2,3.175094E-1,-8.921643E-1,-5.7613897E0,-5.646643E-1,-8.523889E0,-3.0905662E0,8.262314E-1,-3.9085648E0,5.496278E0,2.1554948E-1,-5.8365936E0,3.1879008E-1,9.119238E0,-2.664938E0],"categories":[],"categories_nodes":[],"categories_segments":[],"categories_sizes":[],"default_left":[0,0,0,0,0,0,0,0,0,0,0,0,0,0,0,0,0,0,0,0,0,0,0,0,0,0,0,0,0,0,0,0,0,0,0,0,0,0,0,0,0,0,0,0,0,0,0,0,0,0,0,0,0,0,0,0,0,0,0,0,0,0,0,0,0,0,0,0,0,0,0,0,0,0,0,0,0,0,0,0,0,0,0,0,0,0,0,0,0,0,0,0,0,0,0,0,0,0,0],"id":10,"left_children":[1,3,5,7,9,11,13,15,17,19,21,23,25,27,29,31,33,35,37,-1,-1,39,41,43,45,47,49,51,53,55,57,59,61,-1,63,65,67,69,71,-1,73,-1,75,-1,77,-1,79,81,83,-1,-1,85,87,89,91,-1,93,95,97,-1,-1,-1,-1,-1,-1,-1,-1,-1,-1,-1,-1,-1,-1,-1,-1,-1,-1,-1,-1,-1,-1,-1,-1,-1,-1,-1,-1,-1,-1,-1,-1,-1,-1,-1,-1,-1,-1,-1,-1],"loss_changes":[1.5554475E3,1.8822985E3,2.1872456E3,1.3844517E3,2.2874277E3,3.6250935E3,1.5404172E3,1.5419061E3,3.4320466E3,2.7539214E3,1.7683252E3,1.6860796E3,6.9693494E2,2.8036572E3,2.5902893E3,1.25276E3,8.304824E2,1.4613545E3,7.913733E3,0E0,0E0,8.429443E1,9.630508E2,1.3430044E3,4.728114E2,3.525088E2,7.91308E2,1.474294E3,1.8764421E3,2.4331328E3,1.0029543E3,1.3468031E3,9.120698E2,0E0,6.8604395E2,1.4183396E3,1.2947466E3,3.8251562E2,2.091609E3,0E0,7.932136E2,0E0,1.7136292E1,0E0,5.7083105E2,0E0,7.659202E1,1.6659314E2,7.7531176E0,0E0,0E0,1.8529736E3,2.0451686E3,4.0368262E2,2.2775007E3,0E0,2.5869941E3,3.8584265E2,3.5606511E3,0E0,0E0,0E0,0E0,0E0,0E0,0E0,0E0,0E0,0E0,0E0,0E0,0E0,0E0,0E0,0E0,0E0,0E0,0E0,0E0,0E0,0E0,0E0,0E0,0E0,0E0,0E0,0E0,0E0,0E0,0E0,0E0,0E0,0E0,0E0,0E0,0E0,0E0,0E0,0E0],"parents":[2147483647,0,0,1,1,2,2,3,3,4,4,5,5,6,6,7,7,8,8,9,9,10,10,11,11,12,12,13,13,14,14,15,15,16,16,17,17,18,18,21,21,22,22,23,23,24,24,25,25,26,26,27,27,28,28,29,29,30,30,31,31,32,32,34,34,35,35,36,36,37,37,38,38,40,40,42,42,44,44,46,46,47,47,48,48,51,51,52,52,53,53,54,54,56,56,57,57,58,58],"right_children":[2,4,6,8,10,12,14,16,18,20,22,24,26,28,30,32,34,36,38,-1,-1,40,42,44,46,48,50,52,54,56,58,60,62,-1,64,66,68,70,72,-1,74,-1,76,-1,78,-1,80,82,84,-1,-1,86,88,90,92,-1,94,96,98,-1,-1,-1,-1,-1,-1,-1,-1,-1,-1,-1,-1,-1,-1,-1,-1,-1,-1,-1,-1,-1,-1,-1,-1,-1,-1,-1,-1,-1,-1,-1,-1,-1,-1,-1,-1,-1,-1,-1,-1],"split_conditions":[1.7414474E1,3.544923E2,1.7709658E1,1.7017017E2,5.640333E0,1.5275893E2,3.533047E2,1.6845686E2,1.7313717E1,3.3570006E0,1.6661167E1,5.8000007E0,4.5E0,3.4598077E2,2.4858253E1,2.8836166E1,3.1903334E0,1.8403333E0,1.2261166E1,-6.522281E0,7.355599E0,6.840334E0,2.0863253E1,4.7714653E0,8.600001E0,2.711117E1,2.501117E1,3.3E0,3.4682834E2,1.8403333E0,2.7217524E1,1.5530151E1,2.9702835E1,2.9436803E0,2.842784E1,3.0546347E2,2.1695E0,1E-1,1.7373497E1,-8.925715E0,3.565859E2,4.5040708E0,2.5102835E1,4.084393E0,2.654242E1,4.197199E0,1.7E1,3.533047E2,1E-1,-4.16204E0,2.3800728E0,2.7396584E1,3.6E0,1.3511167E1,3.5019543E2,-7.564337E0,1.27507515E1,4.7E0,2.7475807E1,-7.800042E-2,7.810166E-1,-3.3170834E0,-5.7017542E-2,-5.9369073E0,-7.849516E-1,7.365664E-1,-4.6744375E0,5.571873E0,6.959758E-1,7.4160943E0,2.193728E1,-5.499219E0,5.0118484E0,1.8717762E0,-5.58956E0,-3.0596046E0,-6.417446E-1,-4.9613166E0,-1.6464757E0,-1.7198727E0,7.8623086E-1,3.1508863E0,-4.621216E-1,-8.04081E-1,8.5234456E-2,3.175094E-1,-8.921643E-1,-5.7613897E0,-5.646643E-1,-8.523889E0,-3.0905662E0,8.262314E-1,-3.9085648E0,5.496278E0,2.1554948E-1,-5.8365936E0,3.1879008E-1,9.119238E0,-2.664938E0],"split_indices":[2,3,2,3,0,3,3,3,2,0,0,1,1,3,2,0,0,0,0,0,0,0,0,3,1,0,0,1,3,0,2,2,0,0,0,3,0,1,2,0,3,0,0,0,0,0,1,3,1,0,0,0,1,0,3,0,0,1,2,0,0,0,0,0,0,0,0,0,0,0,0,0,0,0,0,0,0,0,0,0,0,0,0,0,0,0,0,0,0,0,0,0,0,0,0,0,0,0,0],"split_type":[0,0,0,0,0,0,0,0,0,0,0,0,0,0,0,0,0,0,0,0,0,0,0,0,0,0,0,0,0,0,0,0,0,0,0,0,0,0,0,0,0,0,0,0,0,0,0,0,0,0,0,0,0,0,0,0,0,0,0,0,0,0,0,0,0,0,0,0,0,0,0,0,0,0,0,0,0,0,0,0,0,0,0,0,0,0,0,0,0,0,0,0,0,0,0,0,0,0,0],"sum_hessian":[2.385E3,1.164E3,1.221E3,1.144E3,2E1,6.5E1,1.156E3,7.83E2,3.61E2,4E0,1.6E1,4.4E1,2.1E1,1.105E3,5.1E1,7.72E2,1.1E1,3.53E2,8E0,1E0,3E0,1.1E1,5E0,3.9E1,5E0,1.6E1,5E0,1.062E3,4.3E1,3.5E1,1.6E1,7.42E2,3E1,1E0,1E1,1.6E1,3.37E2,3E0,5E0,2E0,9E0,2E0,3E0,1E0,3.8E1,2E0,3E0,1.3E1,3E0,3E0,2E0,7.7E2,2.92E2,8E0,3.5E1,1E0,3.4E1,5E0,1.1E1,4.98E2,2.44E2,1.5E1,1.5E1,6E0,4E0,8E0,8E0,4E0,3.33E2,2E0,1E0,3E0,2E0,1E0,8E0,2E0,1E0,3.1E1,7E0,2E0,1E0,1.2E1,1E0,2E0,1E0,6.32E2,1.38E2,6E0,2.86E2,4E0,4E0,1.8E1,1.7E1,2E1,1.4E1,4E0,1E0,2E0,9E0],"tree_param":{"num_deleted":"0","num_feature":"4","num_nodes":"99","size_leaf_vector":"1"}},{"base_weights":[-3.2471188E-3,1.1670057E0,-4.4860458E-1,9.460028E-1,2.5024977E1,-8.828226E0,-3.404077E-1,-1.2304675E1,1.0672344E0,8.481356E0,3.874148E1,-9.753701E0,1.5910103E0,-6.151677E-2,-2.3513446E0,2.4414775E0,-6.0864363E0,1.2905226E0,-5.0564904E0,2.7975743E0,3.829905E0,1.4693947E1,2.7397203E0,-5.0434794E0,-7.1041017E0,-3.1906366E-1,5.5430117E0,-3.7330568E0,1.2864125E0,-2.0066758E-1,1.2993325E0,9.584085E-1,7.6340547E0,1.0182005E1,-7.851365E0,2.5021284E0,-1.2432199E0,1.0355693E1,-1.0122454E1,-1.5774826E-2,-2.4352582E0,9.697498E0,-2.1314025E0,-1.3389094E1,-2.7264078E0,1.1175329E1,-3.4429834E0,3.6450392E-1,-2.5258338E0,-5.0426817E0,2.969819E0,3.8095552E-1,3.8188317E0,-1.374602E0,-5.0229115E0,3.7331097E0,9.26952E-1,-3.3681543E0,8.0155855E-1,-6.0114063E-2,4.038404E0,-1.4749078E0,-3.1717816E-1,5.5030584E0,1.1683608E0,4.8518386E0,-1.0891206E0,-2.2775498E-1,-4.6292443E0,-9.619633E-2,-1.4976329E0,1.982647E0,6.791935E0,9.7503954E-1,-2.035791E0],"categories":[],"categories_nodes":[],"categories_segments":[],"categories_sizes":[],"default_left":[0,0,0,0,0,0,0,0,0,0,0,0,0,0,0,0,0,0,0,0,0,0,0,0,0,0,0,0,0,0,0,0,0,0,0,0,0,0,0,0,0,0,0,0,0,0,0,0,0,0,0,0,0,0,0,0,0,0,0,0,0,0,0,0,0,0,0,0,0,0,0,0,0,0,0],"id":11,"left_children":[1,3,5,7,9,11,13,15,17,19,21,23,-1,25,27,29,-1,31,33,35,-1,-1,-1,-1,37,39,41,43,45,-1,-1,47,49,51,53,-1,-1,55,57,59,61,63,65,67,69,71,73,-1,-1,-1,-1,-1,-1,-1,-1,-1,-1,-1,-1,-1,-1,-1,-1,-1,-1,-1,-1,-1,-1,-1,-1,-1,-1,-1,-1],"loss_changes":[1.2440608E3,3.4457493E3,1.564591E3,1.0621116E3,1.0329434E3,3.39453E2,9.577566E2,7.558836E2,8.9257196E2,6.170508E1,4.6213965E2,2.7328125E2,0E0,2.1683555E3,1.0502795E3,2.052939E1,0E0,1.3115259E3,1.0595054E3,1.4999275E2,0E0,0E0,0E0,0E0,1.00072156E3,9.216124E2,2.1249634E3,1.4312522E3,2.7510554E3,0E0,0E0,1.4444446E3,1.8829225E3,7.464798E1,5.0468457E2,0E0,0E0,7.064392E0,2.4201099E2,3.1300493E3,6.102134E2,2.0859812E3,7.1722534E2,3.4929956E2,7.505985E2,8.4507495E2,9.1705493E2,0E0,0E0,0E0,0E0,0E0,0E0,0E0,0E0,0E0,0E0,0E0,0E0,0E0,0E0,0E0,0E0,0E0,0E0,0E0,0E0,0E0,0E0,0E0,0E0,0E0,0E0,0E0,0E0],"parents":[2147483647,0,0,1,1,2,2,3,3,4,4,5,5,6,6,7,7,8,8,9,9,10,10,11,11,13,13,14,14,15,15,17,17,18,18,19,19,24,24,25,25,26,26,27,27,28,28,31,31,32,32,33,33,34,34,37,37,38,38,39,39,40,40,41,41,42,42,43,43,44,44,45,45,46,46],"right_children":[2,4,6,8,10,12,14,16,18,20,22,24,-1,26,28,30,-1,32,34,36,-1,-1,-1,-1,38,40,42,44,46,-1,-1,48,50,52,54,-1,-1,56,58,60,62,64,66,68,70,72,74,-1,-1,-1,-1,-1,-1,-1,-1,-1,-1,-1,-1,-1,-1,-1,-1,-1,-1,-1,-1,-1,-1,-1,-1,-1,-1,-1,-1],"split_conditions":[1.4869351E1,1.484318E1,1.50038395E1,-1.1200833E0,1.6908717E2,3.533047E2,1.0500001E1,1.1901798E1,2.9069502E1,2.407158E1,3.8986664E0,1.1871583E1,1.5910103E0,8.099999E0,2.4195107E1,1.1431063E1,-6.0864363E0,2.7396584E1,1.1183201E1,3.1903334E0,3.829905E0,1.4693947E1,2.7397203E0,-5.0434794E0,1.3511167E1,2.5630886E1,2.1897945E1,3.240104E1,2.7748037E1,-2.0066758E-1,1.2993325E0,2.6692421E1,1E-1,2.9923668E1,1.424163E1,2.5021284E0,-1.2432199E0,1.3354917E1,2.0500002E1,2.5277023E1,2.7217524E1,1.7384083E1,8.3E0,1.0179489E0,2.208825E1,2.7103E1,1.7E1,3.6450392E-1,-2.5258338E0,-5.0426817E0,2.969819E0,3.8095552E-1,3.8188317E0,-1.374602E0,-5.0229115E0,3.7331097E0,9.26952E-1,-3.3681543E0,8.0155855E-1,-6.0114063E-2,4.038404E0,-1.4749078E0,-3.1717816E-1,5.5030584E0,1.1683608E0,4.8518386E0,-1.0891206E0,-2.2775498E-1,-4.6292443E0,-9.619633E-2,-1.4976329E0,1.982647E0,6.791935E0,9.7503954E-1,-2.035791E0],"split_indices":[2,2,2,0,3,3,1,2,0,0,0,0,0,1,2,2,0,0,2,0,0,0,0,0,0,2,2,3,2,0,0,0,1,0,2,0,0,0,1,2,2,0,1,3,0,2,1,0,0,0,0,0,0,0,0,0,0,0,0,0,0,0,0,0,0,0,0,0,0,0,0,0,0,0,0],"split_type":[0,0,0,0,0,0,0,0,0,0,0,0,0,0,0,0,0,0,0,0,0,0,0,0,0,0,0,0,0,0,0,0,0,0,0,0,0,0,0,0,0,0,0,0,0,0,0,0,0,0,0,0,0,0,0,0,0,0,0,0,0,0,0,0,0,0,0,0,0,0,0,0,0,0,0],"sum_hessian":[2.385E3,6.57E2,1.728E3,6.52E2,5E0,2.1E1,1.707E3,5E0,6.47E2,3E0,2E0,2E1,1E0,1.5E3,2.07E2,2E0,3E0,6.25E2,2.2E1,2E0,1E0,1E0,1E0,4E0,1.6E1,1.435E3,6.5E1,1.5E2,5.7E1,1E0,1E0,5.95E2,3E1,3E0,1.9E1,1E0,1E0,2E0,1.4E1,1.256E3,1.79E2,4.2E1,2.3E1,1.3E1,1.37E2,1.8E1,3.9E1,5.8E2,1.5E1,2E0,2.8E1,1E0,2E0,1.5E1,4E0,1E0,1E0,1.3E1,1E0,1.24E3,1.6E1,6.3E1,1.16E2,1.6E1,2.6E1,1E0,2.2E1,2E0,1.1E1,6.7E1,7E1,1.4E1,4E0,1.3E1,2.6E1],"tree_param":{"num_deleted":"0","num_feature":"4","num_nodes":"75","size_leaf_vector":"1"}},{"base_weights":[7.62913E-3,-4.5656282E-1,6.8454796E-1,-2.7855587E-1,-6.904326E0,9.995019E0,4.8823074E-1,-3.9637348E-1,8.175567E0,-1.7617273E1,-2.972126E0,1.5339002E1,-2.120806E0,1.3453416E0,-1.2167739E0,2.184426E0,-7.1306163E-1,-4.019791E0,1.1501981E1,-1.9931313E1,4.8136142E-1,5.2061625E0,-5.8109527E0,-5.19133E0,1.9193335E1,-3.8028355E0,9.142494E-2,4.433344E0,4.8520142E-1,-1.0287839E1,-3.0860323E-1,2.8195043E0,-6.462611E0,-5.4033623E0,-4.9833384E-1,1.4442026E1,-7.032242E0,-7.0972476E0,-4.593119E0,4.6341376E0,-7.8201294E-1,-8.171447E0,1.8456064E0,2.832303E0,-5.1684017E0,7.8835874E0,7.728274E0,-3.0771792E-1,-1.3159889E0,1.3446084E-1,-1.4683628E-1,3.155059E0,2.4811085E1,6.273399E-1,-6.9388146E0,7.8701844E0,-1.43986845E1,-6.044908E0,8.7785894E-1,1.4820328E0,-6.626157E-1,-1.1033012E0,-7.687103E0,5.4990463E0,-1.7868854E-1,5.814289E0,2.0638871E-1,-2.8732157E0,-2.9129335E-1,-1.4380533E-1,-1.9230984E0,2.8137143E0,-1.4070103E0,-3.2574995E0,-8.345551E-1,1.1934645E0,-1.3226155E0,2.8298545E0,-1.19189076E-1,1.3884857E0,-2.0989423E0,3.440686E0,1.0585794E1,-8.697695E-1,4.4823465E-1,-1.3951263E0,3.3913171E0,-5.109485E0,-1.6714005E0,1.063814E0,-3.07699E0,1.3114159E0,-8.863556E-1],"categories":[],"categories_nodes":[],"categories_segments":[],"categories_sizes":[],"default_left":[0,0,0,0,0,0,0,0,0,0,0,0,0,0,0,0,0,0,0,0,0,0,0,0,0,0,0,0,0,0,0,0,0,0,0,0,0,0,0,0,0,0,0,0,0,0,0,0,0,0,0,0,0,0,0,0,0,0,0,0,0,0,0,0,0,0,0,0,0,0,0,0,0,0,0,0,0,0,0,0,0,0,0,0,0,0,0,0,0,0,0,0,0],"id":12,"left_children":[1,3,5,7,9,11,13,15,17,19,21,23,25,27,29,31,33,-1,35,37,-1,39,41,43,45,47,49,51,53,55,57,59,-1,61,63,65,67,-1,69,-1,71,73,75,-1,-1,-1,77,-1,-1,-1,-1,79,81,83,-1,85,87,89,91,-1,-1,-1,-1,-1,-1,-1,-1,-1,-1,-1,-1,-1,-1,-1,-1,-1,-1,-1,-1,-1,-1,-1,-1,-1,-1,-1,-1,-1,-1,-1,-1,-1,-1],"loss_changes":[7.500421E2,1.6232858E3,1.7699192E3,1.376786E3,1.5484062E3,1.3274661E3,1.3928688E3,1.1139147E3,1.5176906E3,4.7678076E2,7.035382E2,1.207469E3,2.639494E1,1.6818257E3,2.624771E3,2.3058936E3,1.2189658E3,0E0,1.0279146E3,4.057141E2,0E0,5.026773E2,4.126931E2,6.9102386E2,7.7171045E2,1.9855576E0,1.048354E0,3.5164194E3,1.6827109E3,2.2780205E3,1.9858262E3,1.5676912E3,0E0,1.7551484E3,2.1377664E3,1.0056233E3,3.698091E1,0E0,1.9353931E1,0E0,2.822459E2,2.1597449E2,9.7566986E1,0E0,0E0,0E0,8.685147E1,0E0,0E0,0E0,0E0,1.9915529E3,7.133662E2,1.517421E3,0E0,3.1056015E2,4.6291406E2,2.0560938E3,3.2529358E3,0E0,0E0,0E0,0E0,0E0,0E0,0E0,0E0,0E0,0E0,0E0,0E0,0E0,0E0,0E0,0E0,0E0,0E0,0E0,0E0,0E0,0E0,0E0,0E0,0E0,0E0,0E0,0E0,0E0,0E0,0E0,0E0,0E0,0E0],"parents":[2147483647,0,0,1,1,2,2,3,3,4,4,5,5,6,6,7,7,8,8,9,9,10,10,11,11,12,12,13,13,14,14,15,15,16,16,18,18,19,19,21,21,22,22,23,23,24,24,25,25,26,26,27,27,28,28,29,29,30,30,31,31,33,33,34,34,35,35,36,36,38,38,40,40,41,41,42,42,46,46,51,51,52,52,53,53,55,55,56,56,57,57,58,58],"right_children":[2,4,6,8,10,12,14,16,18,20,22,24,26,28,30,32,34,-1,36,38,-1,40,42,44,46,48,50,52,54,56,58,60,-1,62,64,66,68,-1,70,-1,72,74,76,-1,-1,-1,78,-1,-1,-1,-1,80,82,84,-1,86,88,90,92,-1,-1,-1,-1,-1,-1,-1,-1,-1,-1,-1,-1,-1,-1,-1,-1,-1,-1,-1,-1,-1,-1,-1,-1,-1,-1,-1,-1,-1,-1,-1,-1,-1,-1],"split_conditions":[1.6111792E2,1.5675896E2,1.637992E2,1.5503929E2,1.5818074E2,1.8079027E1,3.2032758E2,1.1901798E1,1.0934166E1,2.8498667E1,1.7447933E1,8.7924185E0,2.4693481E1,8.7924185E0,3.244927E2,1.4930952E2,5.2153335E0,-4.019791E0,1.59E1,2.0955122E1,4.8136142E-1,1.5929475E2,9.5E0,7.3715835E0,2.407158E1,1.9725752E1,2.3684084E1,3.193225E2,3.193225E2,2.8153334E0,3.7403326E0,7E-1,-6.462611E0,1.01545074E2,5.3445E0,2.8640335E1,2.5996582E1,-7.0972476E0,1.6784082E1,4.6341376E0,5.2153335E0,2.7752836E1,2.73E1,2.832303E0,-5.1684017E0,7.8835874E0,2.8836166E1,-3.0771792E-1,-1.3159889E0,1.3446084E-1,-1.4683628E-1,2.6525429E1,4.882E0,1.4694501E1,-6.9388146E0,-1.1200833E0,2.4535526E1,3.338182E2,3E-1,1.4820328E0,-6.626157E-1,-1.1033012E0,-7.687103E0,5.4990463E0,-1.7868854E-1,5.814289E0,2.0638871E-1,-2.8732157E0,-2.9129335E-1,-1.4380533E-1,-1.9230984E0,2.8137143E0,-1.4070103E0,-3.2574995E0,-8.345551E-1,1.1934645E0,-1.3226155E0,2.8298545E0,-1.19189076E-1,1.3884857E0,-2.0989423E0,3.440686E0,1.0585794E1,-8.697695E-1,4.4823465E-1,-1.3951263E0,3.3913171E0,-5.109485E0,-1.6714005E0,1.063814E0,-3.07699E0,1.3114159E0,-8.863556E-1],"split_indices":[3,3,3,3,3,2,3,2,2,0,2,0,2,0,3,3,0,0,1,2,0,3,1,0,0,0,0,3,3,0,0,1,0,3,0,0,0,0,0,0,0,0,1,0,0,0,0,0,0,0,0,2,0,0,0,0,2,3,1,0,0,0,0,0,0,0,0,0,0,0,0,0,0,0,0,0,0,0,0,0,0,0,0,0,0,0,0,0,0,0,0,0,0],"split_type":[0,0,0,0,0,0,0,0,0,0,0,0,0,0,0,0,0,0,0,0,0,0,0,0,0,0,0,0,0,0,0,0,0,0,0,0,0,0,0,0,0,0,0,0,0,0,0,0,0,0,0,0,0,0,0,0,0,0,0,0,0,0,0,0,0,0,0,0,0,0,0,0,0,0,0,0,0,0,0,0,0,0,0,0,0,0,0,0,0,0,0,0,0],"sum_hessian":[2.385E3,1.415E3,9.7E2,1.378E3,3.7E1,1.9E1,9.51E2,1.36E3,1.8E1,9E0,2.8E1,1.3E1,6E0,6.33E2,3.18E2,1.48E2,1.212E3,2E0,1.6E1,8E0,1E0,7E0,2.1E1,2E0,1.1E1,3E0,3E0,1.37E2,4.96E2,2.8E1,2.9E2,1.45E2,3E0,5.2E1,1.16E3,1.4E1,2E0,6E0,2E0,2E0,5E0,1.6E1,5E0,1E0,1E0,6E0,5E0,1E0,2E0,2E0,1E0,1.3E2,7E0,4.94E2,2E0,5E0,2.3E1,4.9E1,2.41E2,1.02E2,4.3E1,4.9E1,3E0,5E0,1.155E3,1E1,4E0,1E0,1E0,1E0,1E0,1E0,4E0,1E1,6E0,4E0,1E0,4E0,1E0,1.14E2,1.6E1,4E0,3E0,9.7E1,3.97E2,1E0,4E0,1.7E1,6E0,1.5E1,3.4E1,1.26E2,1.15E2],"tree_param":{"num_deleted":"0","num_feature":"4","num_nodes":"93","size_leaf_vector":"1"}},{"base_weights":[7.5667544E-4,6.0627513E-2,-4.7031207E0,1.8928336E-1,-1.9475554E0,2.3821406E0,-7.8530965E0,7.209782E-2,6.903967E0,-1.3132018E1,-2.1810102E-1,-1.8841267E0,7.0252333E0,-1.0127154E1,-1.8582453E0,1.8605176E-1,-2.2404099E1,9.2323475E0,-1.0309811E1,-1.610643E1,8.100327E0,6.6414094E0,-2.883265E0,-4.0255766E0,1.3234687E0,8.154915E-1,2.6971254E0,-1.1668096E1,-7.402293E-2,-5.007419E0,2.5555196E0,-3.1899366E-1,1.2947949E0,-1.5733017E1,-9.043571E0,-1.0771719E0,1.5665724E1,-3.9260724E0,1.19786456E-1,-1.739359E1,-7.5747623E0,4.585023E0,-9.3987584E-1,-5.722056E0,1.4207187E1,-1.1220359E1,-2.0964539E-2,-1.6859093E-1,-1.4252958E0,-6.429186E0,-1.6708626E1,-6.971009E-1,6.637905E-1,-1.9318362E0,3.2291338E-1,-7.8698896E-2,-3.237089E0,8.310182E-1,-1.9395678E-1,-6.1562686E0,2.6673203E0,-3.947725E0,5.1675673E0,9.124242E0,-1.0796838E0,-2.6516962E0,-5.676936E0,-3.5952532E-1,-2.7902217E0,5.482228E0,-3.3732765E0,5.8368897E0,-9.0994805E-1,-5.233111E0,1.19576134E-1,4.751421E0,-6.301483E-1,1.8256818E-1,-3.232064E0,-5.955964E0,-2.0838907E0],"categories":[],"categories_nodes":[],"categories_segments":[],"categories_sizes":[],"default_left":[0,0,0,0,0,0,0,0,0,0,0,0,0,0,0,0,0,0,0,0,0,0,0,0,0,0,0,0,0,0,0,0,0,0,0,0,0,0,0,0,0,0,0,0,0,0,0,0,0,0,0,0,0,0,0,0,0,0,0,0,0,0,0,0,0,0,0,0,0,0,0,0,0,0,0,0,0,0,0,0,0],"id":13,"left_children":[1,3,5,7,9,11,13,15,17,19,21,23,25,27,29,31,33,35,37,39,41,43,45,47,-1,-1,-1,49,51,53,-1,55,57,59,-1,61,63,-1,-1,65,67,-1,-1,69,71,73,75,-1,-1,77,79,-1,-1,-1,-1,-1,-1,-1,-1,-1,-1,-1,-1,-1,-1,-1,-1,-1,-1,-1,-1,-1,-1,-1,-1,-1,-1,-1,-1,-1,-1],"loss_changes":[6.722426E2,6.093336E2,6.882593E2,1.7431923E3,2.7438442E3,2.1132318E2,2.6746655E2,5.5851333E3,1.618232E3,1.3303882E3,2.286082E3,9.8650505E1,1.788086E1,2.3150562E2,2.7140015E2,1.2149785E3,9.378418E1,2.2719255E3,1.5392645E2,5.4936035E1,2.899497E2,3.355167E3,2.147459E3,9.892754E0,0E0,0E0,0E0,2.3586658E2,2.057395E1,5.920456E1,0E0,8.818484E2,1.9464192E3,1.1256296E3,0E0,3.322459E3,6.0760493E3,0E0,0E0,1.5922363E1,3.2875504E1,0E0,0E0,2.0606394E3,2.049937E3,1.6700527E3,2.2758623E3,0E0,0E0,2.5115237E2,4.6284546E1,0E0,0E0,0E0,0E0,0E0,0E0,0E0,0E0,0E0,0E0,0E0,0E0,0E0,0E0,0E0,0E0,0E0,0E0,0E0,0E0,0E0,0E0,0E0,0E0,0E0,0E0,0E0,0E0,0E0,0E0],"parents":[2147483647,0,0,1,1,2,2,3,3,4,4,5,5,6,6,7,7,8,8,9,9,10,10,11,11,12,12,13,13,14,14,15,15,16,16,17,17,18,18,19,19,20,20,21,21,22,22,23,23,27,27,28,28,29,29,31,31,32,32,33,33,35,35,36,36,39,39,40,40,43,43,44,44,45,45,46,46,49,49,50,50],"right_children":[2,4,6,8,10,12,14,16,18,20,22,24,26,28,30,32,34,36,38,40,42,44,46,48,-1,-1,-1,50,52,54,-1,56,58,60,-1,62,64,-1,-1,66,68,-1,-1,70,72,74,76,-1,-1,78,80,-1,-1,-1,-1,-1,-1,-1,-1,-1,-1,-1,-1,-1,-1,-1,-1,-1,-1,-1,-1,-1,-1,-1,-1,-1,-1,-1,-1,-1,-1],"split_conditions":[3.1819498E1,3.4598077E2,1.7017017E2,3.404115E2,3.474712E2,3E-1,1.9011953E1,3.3917715E2,4.0000005E0,6.0000005E0,6.252834E0,3.3411167E1,1.51884165E1,2.005439E2,3E-1,1.7017017E2,1.11465845E1,6.7632504E0,1.23945E1,1.8129917E1,1.0711166E1,4.1653337E0,9.082E0,1.6575644E1,1.3234687E0,8.154915E-1,2.6971254E0,1.662249E1,1.8043148E1,1.8464598E2,2.5555196E0,1.6908717E2,1.913426E1,7.6611667E0,-9.043571E0,3.4460284E2,1.4554916E1,-3.9260724E0,1.19786456E-1,1.5716793E1,1.9071585E1,4.585023E0,-9.3987584E-1,1.4736665E0,2.3933907E1,2.2565422E1,1.0098667E1,-1.6859093E-1,-1.4252958E0,1E-1,1.8173566E2,-6.971009E-1,6.637905E-1,-1.9318362E0,3.2291338E-1,-7.8698896E-2,-3.237089E0,8.310182E-1,-1.9395678E-1,-6.1562686E0,2.6673203E0,-3.947725E0,5.1675673E0,9.124242E0,-1.0796838E0,-2.6516962E0,-5.676936E0,-3.5952532E-1,-2.7902217E0,5.482228E0,-3.3732765E0,5.8368897E0,-9.0994805E-1,-5.233111E0,1.19576134E-1,4.751421E0,-6.301483E-1,1.8256818E-1,-3.232064E0,-5.955964E0,-2.0838907E0],"split_indices":[0,3,3,3,3,1,2,3,1,1,0,0,2,3,1,3,0,0,0,0,0,0,0,2,0,0,0,2,2,3,0,3,2,0,0,3,0,0,0,2,0,0,0,0,2,2,0,0,0,1,3,0,0,0,0,0,0,0,0,0,0,0,0,0,0,0,0,0,0,0,0,0,0,0,0,0,0,0,0,0,0],"split_type":[0,0,0,0,0,0,0,0,0,0,0,0,0,0,0,0,0,0,0,0,0,0,0,0,0,0,0,0,0,0,0,0,0,0,0,0,0,0,0,0,0,0,0,0,0,0,0,0,0,0,0,0,0,0,0,0,0,0,0,0,0,0,0,0,0,0,0,0,0,0,0,0,0,0,0,0,0,0,0,0,0],"sum_hessian":[2.385E3,2.356E3,2.9E1,2.215E3,1.41E2,9E0,2E1,2.178E3,3.7E1,1.8E1,1.23E2,5E0,4E0,1.4E1,6E0,2.168E3,1E1,3.3E1,4E0,1.6E1,2E0,3.4E1,8.9E1,4E0,1E0,2E0,2E0,1.2E1,2E0,5E0,1E0,1.49E3,6.78E2,7E0,3E0,1.3E1,2E1,3E0,1E0,1.3E1,3E0,1E0,1E0,1.3E1,2.1E1,2.2E1,6.7E1,1E0,3E0,7E0,5E0,1E0,1E0,4E0,1E0,1.483E3,7E0,3.85E2,2.93E2,6E0,1E0,8E0,5E0,1.1E1,9E0,3E0,1E1,1E0,2E0,2E0,1.1E1,1.6E1,5E0,1.4E1,8E0,7E0,6E1,3E0,4E0,3E0,2E0],"tree_param":{"num_deleted":"0","num_feature":"4","num_nodes":"81","size_leaf_vector":"1"}},{"base_weights":[-7.2151655E-3,1.4018458E0,-1.9522035E-1,-4.5247322E-1,6.409581E0,-5.155688E0,1.340228E-2,4.3958843E-1,-5.912284E0,1.2784748E1,3.2213354E0,-8.69762E0,5.3824663E0,2.4814126E0,-1.3125004E-1,-9.1633517E-1,5.459211E0,1.2525604E0,-1.2682976E1,-2.2621994E0,1.7015335E1,2.0836226E1,1.7176436E0,-1.1503585E1,-3.5416982E0,8.727618E0,-1.5025578E0,1.237538E1,-2.1450438E-1,-1.4969924E1,-4.531807E-2,4.205406E0,-1.8985513E0,-1.4658192E1,1.0474695E1,5.585847E0,-2.8515432E0,-1.8330206E1,-1.157095E0,2.2777384E1,8.3993435E0,8.486826E0,2.676607E0,-1.578738E1,3.2024796E0,-6.8554583E0,-2.2165268E1,-9.727774E0,2.4409637E0,1.2492868E1,-6.3935986E0,8.375161E0,7.7703543E0,-2.0542253E1,1.2400312E0,-2.3329575E1,5.4918566E0,-5.501212E0,1.2685752E-2,-1.9896532E0,2.8084083E0,-4.184328E0,-2.3577276E-1,4.829091E0,-6.405406E0,4.8840704E0,9.590314E-1,-5.7484407E0,1.1872745E0,-7.2135024E0,-1.1240258E0,5.12354E-1,-1.3773956E0,8.35035E0,3.0391555E0,8.343392E-1,8.84449E0,-5.812949E0,-7.5300413E-1,1.2246715E-1,3.3256557E0,-1.1971421E0,-7.344073E0,-7.174092E0,-4.3997842E-1,2.268159E0,-4.1824465E0,5.2349634E0,-1.8505617E0,4.813218E0,-2.5678483E-1,-3.3219454E0,1.2732677E0,7.9838057E0,1.4610862E0,-7.6266637E0,5.7863045E-1,6.6891503E0,-1.9968283E-1,-7.559779E0,-1.536263E0,-3.999257E0,4.862914E0,-2.56127E0,3.6154747E-2,6.4215195E-1,-4.985136E-2],"categories":[],"categories_nodes":[],"categories_segments":[],"categories_sizes":[],"default_left":[0,0,0,0,0,0,0,0,0,0,0,0,0,0,0,0,0,0,0,0,0,0,0,0,0,0,0,0,0,0,0,0,0,0,0,0,0,0,0,0,0,0,0,0,0,0,0,0,0,0,0,0,0,0,0,0,0,0,0,0,0,0,0,0,0,0,0,0,0,0,0,0,0,0,0,0,0,0,0,0,0,0,0,0,0,0,0,0,0,0,0,0,0,0,0,0,0,0,0,0,0,0,0,0,0,0,0],"id":14,"left_children":[1,3,5,7,9,11,13,15,17,19,21,23,25,27,29,31,33,35,37,-1,39,41,43,45,47,-1,49,51,53,55,57,59,61,63,65,-1,67,69,71,73,75,-1,-1,77,79,81,83,85,87,89,91,93,-1,95,97,99,101,103,105,-1,-1,-1,-1,-1,-1,-1,-1,-1,-1,-1,-1,-1,-1,-1,-1,-1,-1,-1,-1,-1,-1,-1,-1,-1,-1,-1,-1,-1,-1,-1,-1,-1,-1,-1,-1,-1,-1,-1,-1,-1,-1,-1,-1,-1,-1,-1,-1],"loss_changes":[6.3235077E2,2.612249E3,2.1794966E3,1.00591943E3,1.5035618E3,3.2194766E3,7.221866E2,1.2165104E3,1.4227037E3,2.278017E3,1.3415537E3,8.85167E2,3.6350166E3,2.9900657E3,2.436069E3,7.173068E2,3.9876836E3,1.1222295E3,9.5512964E2,0E0,8.512461E2,1.0279663E2,1.3241711E3,1.8798779E3,9.1196594E2,0E0,1.3120139E3,1.0816211E3,2.6569749E3,2.009709E3,6.016654E2,1.3472821E3,1.5844065E3,1.9904863E3,1.2577761E3,0E0,1.5195651E3,7.433252E2,6.6874374E1,4.8550195E2,1.1024556E3,0E0,0E0,1.419809E2,1.00872705E3,1.4171544E3,3.991953E2,9.7958057E2,1.7874908E3,2.5075403E2,7.439206E2,1.148793E3,0E0,7.06979E2,3.385537E3,1.4331494E2,1.0230459E3,3.424201E2,7.165989E2,0E0,0E0,0E0,0E0,0E0,0E0,0E0,0E0,0E0,0E0,0E0,0E0,0E0,0E0,0E0,0E0,0E0,0E0,0E0,0E0,0E0,0E0,0E0,0E0,0E0,0E0,0E0,0E0,0E0,0E0,0E0,0E0,0E0,0E0,0E0,0E0,0E0,0E0,0E0,0E0,0E0,0E0,0E0,0E0,0E0,0E0,0E0,0E0],"parents":[2147483647,0,0,1,1,2,2,3,3,4,4,5,5,6,6,7,7,8,8,9,9,10,10,11,11,12,12,13,13,14,14,15,15,16,16,17,17,18,18,20,20,21,21,22,22,23,23,24,24,26,26,27,27,28,28,29,29,30,30,31,31,32,32,33,33,34,34,36,36,37,37,38,38,39,39,40,40,43,43,44,44,45,45,46,46,47,47,48,48,49,49,50,50,51,51,53,53,54,54,55,55,56,56,57,57,58,58],"right_children":[2,4,6,8,10,12,14,16,18,20,22,24,26,28,30,32,34,36,38,-1,40,42,44,46,48,-1,50,52,54,56,58,60,62,64,66,-1,68,70,72,74,76,-1,-1,78,80,82,84,86,88,90,92,94,-1,96,98,100,102,104,106,-1,-1,-1,-1,-1,-1,-1,-1,-1,-1,-1,-1,-1,-1,-1,-1,-1,-1,-1,-1,-1,-1,-1,-1,-1,-1,-1,-1,-1,-1,-1,-1,-1,-1,-1,-1,-1,-1,-1,-1,-1,-1,-1,-1,-1,-1,-1,-1],"split_conditions":[2.3976809E1,1.7841196E1,3.240104E1,1.5935013E1,1.5716793E1,2.1980644E1,4.387189E1,1.2977418E1,1.7238699E1,5.7903333E0,4.621583E0,6E-1,2.2862125E1,1.224E1,4.4617844E1,5.9028325E0,1.3450708E1,1.636324E1,1.9440334E1,-2.2621994E0,1.731117E1,5E-1,5.9028325E0,1E-1,1.7196585E1,8.727618E0,2.6945686E1,4.2878918E1,5.409083E0,4E-1,-1.1200833E0,3.3570006E0,6.617417E0,1.0365251E1,1.7992796E1,5.585847E0,7.769501E0,2.5045238E1,2.1542923E1,1.457889E1,2.3417414E1,8.486826E0,2.676607E0,1.2E0,1.5000002E0,1.9995398E1,2.2323668E1,4.4319997E0,2.1023668E1,1.7025751E1,2.2394503E1,3.592416E0,7.7703543E0,3.8198723E1,6.7632504E0,3E-1,1.0799999E1,2.3933907E1,4.621583E0,-1.9896532E0,2.8084083E0,-4.184328E0,-2.3577276E-1,4.829091E0,-6.405406E0,4.8840704E0,9.590314E-1,-5.7484407E0,1.1872745E0,-7.2135024E0,-1.1240258E0,5.12354E-1,-1.3773956E0,8.35035E0,3.0391555E0,8.343392E-1,8.84449E0,-5.812949E0,-7.5300413E-1,1.2246715E-1,3.3256557E0,-1.1971421E0,-7.344073E0,-7.174092E0,-4.3997842E-1,2.268159E0,-4.1824465E0,5.2349634E0,-1.8505617E0,4.813218E0,-2.5678483E-1,-3.3219454E0,1.2732677E0,7.9838057E0,1.4610862E0,-7.6266637E0,5.7863045E-1,6.6891503E0,-1.9968283E-1,-7.559779E0,-1.536263E0,-3.999257E0,4.862914E0,-2.56127E0,3.6154747E-2,6.4215195E-1,-4.985136E-2],"split_indices":[3,3,3,3,2,2,3,3,2,0,0,1,2,2,3,0,2,3,0,0,0,1,0,1,0,0,3,3,0,1,0,0,0,2,2,0,0,2,2,2,0,0,0,1,1,2,0,0,0,0,0,0,0,3,0,1,2,2,0,0,0,0,0,0,0,0,0,0,0,0,0,0,0,0,0,0,0,0,0,0,0,0,0,0,0,0,0,0,0,0,0,0,0,0,0,0,0,0,0,0,0,0,0,0,0,0,0],"split_type":[0,0,0,0,0,0,0,0,0,0,0,0,0,0,0,0,0,0,0,0,0,0,0,0,0,0,0,0,0,0,0,0,0,0,0,0,0,0,0,0,0,0,0,0,0,0,0,0,0,0,0,0,0,0,0,0,0,0,0,0,0,0,0,0,0,0,0,0,0,0,0,0,0,0,0,0,0,0,0,0,0,0,0,0,0,0,0,0,0,0,0,0,0,0,0,0,0,0,0,0,0,0,0,0,0,0,0],"sum_hessian":[2.385E3,2.8E2,2.105E3,2.05E2,7.5E1,8.4E1,2.021E3,1.77E2,2.8E1,2.4E1,5.1E1,6.3E1,2.1E1,1.11E2,1.91E3,1.4E2,3.7E1,1.4E1,1.4E1,4E0,2E1,3E0,4.8E1,4E1,2.3E1,4E0,1.7E1,2.3E1,8.8E1,1E1,1.9E3,2.2E1,1.18E2,7E0,3E1,2E0,1.2E1,9E0,5E0,1.1E1,9E0,1E0,2E0,3E0,4.5E1,2.9E1,1.1E1,1.1E1,1.2E1,4E0,1.3E1,1.9E1,4E0,5E0,8.3E1,7E0,3E0,1.9E1,1.881E3,7E0,1.5E1,9E0,1.09E2,1E0,6E0,1.6E1,1.4E1,3E0,9E0,6E0,3E0,3E0,2E0,7E0,4E0,8E0,1E0,2E0,1E0,3.4E1,1.1E1,2.6E1,3E0,1E1,1E0,2E0,9E0,4E0,8E0,3E0,1E0,9E0,4E0,2E0,1.7E1,4E0,1E0,6E0,7.7E1,6E0,1E0,1E0,2E0,1.2E1,7E0,1.45E2,1.736E3],"tree_param":{"num_deleted":"0","num_feature":"4","num_nodes":"107","size_leaf_vector":"1"}},{"base_weights":[4.3289666E-3,5.7230487E-2,-5.4332156E0,-2.0400848E0,1.6244337E-1,-2.6195934E0,-1.5038337E1,-3.6971095E-1,-6.8656607E0,3.9239001E0,1.4894349E-2,-4.872625E0,1.1020782E1,-5.900347E0,-5.396071E0,-1.3426741E0,5.900539E0,-7.073013E0,-4.754594E0,-2.751686E0,8.884569E0,-9.224779E0,1.4009792E-1,-1.0115608E1,-1.845081E0,6.0642934E0,-1.1049409E0,-2.0837271E0,-3.4450495E-1,2.1607563E-1,-1.0453387E1,-2.695529E0,-4.7761006E0,1.2759663E0,-2.3773886E1,1.5764073E1,3.161939E0,-1.41786175E1,1.6053734E0,5.1245136E0,-1.8510051E-2,1.9640924E-1,-3.720183E0,1.1640224E0,-3.3781197E0,-4.468568E-1,4.806872E0,-6.307694E0,3.0566843E-2,1.9904794E0,-1.8522869E0,3.1775358E0,-1.9674312E0,3.6220517E0,-1.000742E1,5.4064875E0,3.2990858E-1,-8.049815E-1,5.4331126E0,-9.359806E-1,-8.204437E0,-1.0252674E0,4.33942E0,2.8242242E0,-2.3379903E0,1.6701331E-2,-1.9917538E0,5.6570935E-1,-1.478936E0],"categories":[],"categories_nodes":[],"categories_segments":[],"categories_sizes":[],"default_left":[0,0,0,0,0,0,0,0,0,0,0,0,0,0,0,0,0,0,0,0,0,0,0,0,0,0,0,0,0,0,0,0,0,0,0,0,0,0,0,0,0,0,0,0,0,0,0,0,0,0,0,0,0,0,0,0,0,0,0,0,0,0,0,0,0,0,0,0,0],"id":15,"left_children":[1,3,5,7,9,11,13,15,17,19,21,23,25,-1,27,29,-1,-1,31,33,35,37,39,41,43,-1,-1,-1,-1,45,47,49,-1,51,53,55,57,59,61,63,65,-1,-1,-1,67,-1,-1,-1,-1,-1,-1,-1,-1,-1,-1,-1,-1,-1,-1,-1,-1,-1,-1,-1,-1,-1,-1,-1,-1],"loss_changes":[6.8665424E2,5.219825E2,5.82185E2,9.082999E2,1.2497999E3,6.376119E2,1.170647E2,1.6836029E3,9.109684E2,2.8392546E3,2.5093218E3,2.5118301E2,4.799947E2,0E0,1.1771736E1,1.1667671E3,0E0,0E0,5.7784283E2,3.1631287E3,1.8792292E3,1.5786357E3,1.6919105E3,1.5577954E2,1.1842998E2,0E0,0E0,0E0,0E0,1.9380337E3,1.3412599E3,8.199685E2,0E0,2.404847E3,2.4641558E3,7.085039E2,2.4951443E3,2.8274238E3,6.9535077E2,3.7305479E3,1.01946204E3,0E0,0E0,0E0,9.0972984E1,0E0,0E0,0E0,0E0,0E0,0E0,0E0,0E0,0E0,0E0,0E0,0E0,0E0,0E0,0E0,0E0,0E0,0E0,0E0,0E0,0E0,0E0,0E0,0E0],"parents":[2147483647,0,0,1,1,2,2,3,3,4,4,5,5,6,6,7,7,8,8,9,9,10,10,11,11,12,12,14,14,15,15,18,18,19,19,20,20,21,21,22,22,23,23,24,24,29,29,30,30,31,31,33,33,34,34,35,35,36,36,37,37,38,38,39,39,40,40,44,44],"right_children":[2,4,6,8,10,12,14,16,18,20,22,24,26,-1,28,30,-1,-1,32,34,36,38,40,42,44,-1,-1,-1,-1,46,48,50,-1,52,54,56,58,60,62,64,66,-1,-1,-1,68,-1,-1,-1,-1,-1,-1,-1,-1,-1,-1,-1,-1,-1,-1,-1,-1,-1,-1,-1,-1,-1,-1,-1,-1],"split_conditions":[5.479999E1,3.1903334E0,1.5929475E2,3.338182E2,4.621583E0,1.4930952E2,6.59E1,3.311135E2,3.3514624E2,1.8464598E2,5.052833E0,2.3080019E1,2.2767418E1,-5.900347E0,2.501117E1,2.8153334E0,5.900539E0,-7.073013E0,3.040333E0,1.01545074E2,3.1063208E2,1E-1,5.7903333E0,1.5225749E1,1.4949756E1,6.0642934E0,-1.1049409E0,-2.0837271E0,-3.4450495E-1,2.542417E0,3.040333E0,1.6919998E1,-4.7761006E0,1.7313717E1,3.7403326E0,1E-1,4.4319997E0,2.9055612E2,3.404115E2,1.0000001E0,3.5721414E2,1.9640924E-1,-3.720183E0,1.1640224E0,4.4617844E1,-4.468568E-1,4.806872E0,-6.307694E0,3.0566843E-2,1.9904794E0,-1.8522869E0,3.1775358E0,-1.9674312E0,3.6220517E0,-1.000742E1,5.4064875E0,3.2990858E-1,-8.049815E-1,5.4331126E0,-9.359806E-1,-8.204437E0,-1.0252674E0,4.33942E0,2.8242242E0,-2.3379903E0,1.6701331E-2,-1.9917538E0,5.6570935E-1,-1.478936E0],"split_indices":[1,0,3,3,0,3,1,3,3,3,0,3,0,0,0,0,0,0,0,3,3,1,0,0,2,0,0,0,0,0,0,2,0,2,0,1,0,3,3,1,3,0,0,0,3,0,0,0,0,0,0,0,0,0,0,0,0,0,0,0,0,0,0,0,0,0,0,0,0],"split_type":[0,0,0,0,0,0,0,0,0,0,0,0,0,0,0,0,0,0,0,0,0,0,0,0,0,0,0,0,0,0,0,0,0,0,0,0,0,0,0,0,0,0,0,0,0,0,0,0,0,0,0,0,0,0,0,0,0,0,0,0,0,0,0,0,0,0,0,0,0],"sum_hessian":[2.385E3,2.363E3,2.2E1,1.12E2,2.251E3,1.8E1,4E0,8.4E1,2.8E1,8.4E1,2.167E3,1.6E1,2E0,2E0,2E0,8.1E1,3E0,2E0,2.6E1,3.6E1,4.8E1,2.8E1,2.139E3,5E0,1.1E1,1E0,1E0,1E0,1E0,7E1,1.1E1,2.3E1,3E0,3.1E1,5E0,2.1E1,2.7E1,1.9E1,9E0,6.5E1,2.074E3,1E0,4E0,2E0,9E0,6.4E1,6E0,5E0,6E0,6E0,1.7E1,1.4E1,1.7E1,1E0,4E0,1.8E1,3E0,2E1,7E0,1.1E1,8E0,7E0,2E0,4.9E1,1.6E1,2.052E3,2.2E1,2E0,7E0],"tree_param":{"num_deleted":"0","num_feature":"4","num_nodes":"69","size_leaf_vector":"1"}},{"base_weights":[-3.8828487E-3,-4.424989E0,5.0492033E-2,2.3914964E0,-1.0112852E1,1.6929964E0,-1.4685085E-1,1.5604359E1,-2.6305895E0,-2.0531273E1,-1.8086723E0,2.9903772E-1,4.9355183E0,-2.9319503E0,6.66963E-2,1.6121751E-1,6.1342654E0,1.1513229E1,-9.373675E0,-1.7773076E0,-6.59351E0,4.6215663E0,-3.7828267E0,1.1943985E0,-4.34245E0,5.891914E0,-2.9471052E0,-4.560274E0,2.7576332E0,7.144159E0,-1.07404925E-1,5.2033234E-1,6.6737885E0,-1.6245527E1,7.4945884E0,-2.1925063E0,4.33135E0,-1.0294021E-1,5.159323E0,9.9147695E-1,-9.386881E0,4.068088E0,1.3157186E1,-7.344025E0,-1.0396269E-1,8.064668E0,-4.441729E-1,2.208054E1,3.5141184E0,-1.12924385E1,-4.2627025E-2,1.2554741E0,-1.0213246E0,-7.4233494E0,1.5048218E-1,3.2764642E0,9.610062E-2,-7.8255445E-1,-7.927094E-2,3.209212E-1,-3.721728E0,-3.160856E-1,4.3025637E0,1.4747319E0,-3.308784E0,-5.4971366E0,-1.3413894E0,2.4683373E0,-4.583964E-1,6.3730407E0,1.8913268E0,-1.3544167E0,-4.4996023E0,4.34756E0,-7.9669017E-1,-5.0717063E0,7.86212E-1,6.3223344E-1,7.294124E0,1.859238E0,-2.8913808E0,-5.244697E0,1.173131E0,5.9601944E-3,-1.2232289E0],"categories":[],"categories_nodes":[],"categories_segments":[],"categories_sizes":[],"default_left":[0,0,0,0,0,0,0,0,0,0,0,0,0,0,0,0,0,0,0,0,0,0,0,0,0,0,0,0,0,0,0,0,0,0,0,0,0,0,0,0,0,0,0,0,0,0,0,0,0,0,0,0,0,0,0,0,0,0,0,0,0,0,0,0,0,0,0,0,0,0,0,0,0,0,0,0,0,0,0,0,0,0,0,0,0],"id":16,"left_children":[1,3,5,7,9,11,13,15,17,19,21,23,25,27,29,-1,-1,31,33,-1,-1,35,-1,37,39,41,-1,43,45,47,49,51,-1,53,55,57,-1,59,61,63,65,67,69,71,73,-1,75,77,79,81,83,-1,-1,-1,-1,-1,-1,-1,-1,-1,-1,-1,-1,-1,-1,-1,-1,-1,-1,-1,-1,-1,-1,-1,-1,-1,-1,-1,-1,-1,-1,-1,-1,-1,-1],"loss_changes":[5.73811E2,1.1485508E3,7.6456256E2,9.700344E2,1.3471288E3,1.1420693E3,1.2527393E3,2.8090063E2,1.157024E3,1.7754883E1,7.5278925E2,7.449201E2,1.130669E3,1.4022485E3,2.4121726E3,0E0,0E0,4.6036E2,1.0490833E3,0E0,0E0,4.9987625E2,0E0,7.721087E2,7.89599E2,9.005176E2,0E0,1.4506516E3,2.6381772E3,2.4707307E3,1.3841202E3,5.739485E1,0E0,8.664125E2,7.025905E1,3.321619E0,0E0,1.6579764E3,2.125986E3,7.618125E2,5.770205E2,1.3859746E3,6.418596E2,1.491612E3,1.7516976E3,0E0,1.608334E3,3.5019678E2,1.4360973E3,1.1035076E3,4.7942258E2,0E0,0E0,0E0,0E0,0E0,0E0,0E0,0E0,0E0,0E0,0E0,0E0,0E0,0E0,0E0,0E0,0E0,0E0,0E0,0E0,0E0,0E0,0E0,0E0,0E0,0E0,0E0,0E0,0E0,0E0,0E0,0E0,0E0,0E0],"parents":[2147483647,0,0,1,1,2,2,3,3,4,4,5,5,6,6,7,7,8,8,9,9,10,10,11,11,12,12,13,13,14,14,17,17,18,18,21,21,23,23,24,24,25,25,27,27,28,28,29,29,30,30,31,31,33,33,34,34,35,35,37,37,38,38,39,39,40,40,41,41,42,42,43,43,44,44,46,46,47,47,48,48,49,49,50,50],"right_children":[2,4,6,8,10,12,14,16,18,20,22,24,26,28,30,-1,-1,32,34,-1,-1,36,-1,38,40,42,-1,44,46,48,50,52,-1,54,56,58,-1,60,62,64,66,68,70,72,74,-1,76,78,80,82,84,-1,-1,-1,-1,-1,-1,-1,-1,-1,-1,-1,-1,-1,-1,-1,-1,-1,-1,-1,-1,-1,-1,-1,-1,-1,-1,-1,-1,-1,-1,-1,-1,-1,-1],"split_conditions":[3.2969644E0,1.0213248E1,2.3976809E1,1.859845E1,3E-1,1.7841196E1,3.8198723E1,5.2153335E0,5.3445E0,1.3134084E1,2.1999998E0,1.5935013E1,1.0500001E1,2.1980644E1,4.387189E1,1.6121751E-1,6.1342654E0,3.3570006E0,9.082E0,-1.7773076E0,-6.59351E0,1.8584509E1,-3.7828267E0,2.4195107E1,1.7238699E1,1.5000002E0,-2.9471052E0,1.7196585E1,2.2401142E1,7.769501E0,4.4617844E1,2.542417E0,6.6737885E0,1.9247384E0,9.165334E0,2.3684084E1,4.33135E0,2.2862125E1,1.1945473E1,1.9440334E1,1.3794502E1,3E-1,3.6999998E0,1.2261166E1,1.1013882E1,8.064668E0,8.37575E0,3.9151646E1,2.1178896E1,4E-1,3.1819498E1,1.2554741E0,-1.0213246E0,-7.4233494E0,1.5048218E-1,3.2764642E0,9.610062E-2,-7.8255445E-1,-7.927094E-2,3.209212E-1,-3.721728E0,-3.160856E-1,4.3025637E0,1.4747319E0,-3.308784E0,-5.4971366E0,-1.3413894E0,2.4683373E0,-4.583964E-1,6.3730407E0,1.8913268E0,-1.3544167E0,-4.4996023E0,4.34756E0,-7.9669017E-1,-5.0717063E0,7.86212E-1,6.3223344E-1,7.294124E0,1.859238E0,-2.8913808E0,-5.244697E0,1.173131E0,5.9601944E-3,-1.2232289E0],"split_indices":[3,0,3,2,1,3,3,0,0,0,1,3,1,2,3,0,0,0,0,0,0,2,0,2,2,1,0,0,2,0,3,0,0,3,0,0,0,2,3,0,0,1,1,0,2,0,0,3,2,1,0,0,0,0,0,0,0,0,0,0,0,0,0,0,0,0,0,0,0,0,0,0,0,0,0,0,0,0,0,0,0,0,0,0,0],"split_type":[0,0,0,0,0,0,0,0,0,0,0,0,0,0,0,0,0,0,0,0,0,0,0,0,0,0,0,0,0,0,0,0,0,0,0,0,0,0,0,0,0,0,0,0,0,0,0,0,0,0,0,0,0,0,0,0,0,0,0,0,0,0,0,0,0,0,0,0,0,0,0,0,0,0,0,0,0,0,0,0,0,0,0,0,0],"sum_hessian":[2.385E3,2.8E1,2.357E3,1.3E1,1.5E1,2.52E2,2.105E3,3E0,1E1,6E0,9E0,1.77E2,7.5E1,1.49E2,1.956E3,1E0,2E0,3E0,7E0,1E0,5E0,6E0,3E0,1.49E2,2.8E1,7.1E1,4E0,1.16E2,3.3E1,4.6E1,1.91E3,2E0,1E0,5E0,2E0,4E0,2E0,1.13E2,3.6E1,1.4E1,1.4E1,5.8E1,1.3E1,7.1E1,4.5E1,3E0,3E1,8E0,3.8E1,1E1,1.9E3,1E0,1E0,3E0,2E0,1E0,1E0,3E0,1E0,1.04E2,9E0,2.2E1,1.4E1,1.1E1,3E0,4E0,1E1,3.3E1,2.5E1,5E0,8E0,5.3E1,1.8E1,6E0,3.9E1,4E0,2.6E1,1E0,7E0,3.2E1,6E0,7E0,3E0,1.872E3,2.8E1],"tree_param":{"num_deleted":"0","num_feature":"4","num_nodes":"85","size_leaf_vector":"1"}},{"base_weights":[-1.4845215E-3,5.813803E-2,-2.8463018E0,1.6636321E-2,5.1226554E0,-9.678903E0,-2.0238729E0,8.377694E-2,-1.5501225E1,1.2724613E1,-1.5628242E0,-2.1941147E0,-4.181217E0,6.664822E0,-3.531488E0,4.198212E-2,8.818878E0,6.544317E0,-2.183065E1,-5.322304E-2,1.4359543E1,4.8946795E0,-4.9822264E0,-1.719104E0,7.317524E-1,2.5841665E0,-7.544358E-1,-6.2388253E0,-2.3827913E0,1.2901719E-1,-1.8551085E0,-1.6273398E0,2.7506594E1,-3.451124E0,6.3960667E0,-6.9559627E0,-1.8509126E0,1.9181005E1,4.7428274E0,-2.689086E0,7.295565E0,-3.4376836E0,-3.084421E0,-8.936194E-1,-3.9145026E0,1.3454015E-2,1.4756726E0,5.109293E0,-9.0484947E-1,-5.5091367E0,1.016094E0,1.0520129E1,7.2376215E-1,9.4679266E-2,7.145538E0,3.824833E-1,1.6421422E0,3.1161177E0,1.6688691E-1,-1.5116875E0,1.1656855E0,-6.477927E-1,6.9682777E-1,-1.2959576E-2,-1.4899158E0],"categories":[],"categories_nodes":[],"categories_segments":[],"categories_sizes":[],"default_left":[0,0,0,0,0,0,0,0,0,0,0,0,0,0,0,0,0,0,0,0,0,0,0,0,0,0,0,0,0,0,0,0,0,0,0,0,0,0,0,0,0,0,0,0,0,0,0,0,0,0,0,0,0,0,0,0,0,0,0,0,0,0,0,0,0],"id":17,"left_children":[1,3,5,7,9,11,13,15,17,19,21,23,-1,25,27,29,31,33,35,-1,37,-1,39,-1,-1,-1,-1,41,43,45,47,49,51,-1,-1,-1,-1,53,55,-1,57,59,-1,61,63,-1,-1,-1,-1,-1,-1,-1,-1,-1,-1,-1,-1,-1,-1,-1,-1,-1,-1,-1,-1],"loss_changes":[4.0486755E2,4.9132996E2,2.5575824E2,2.4184578E3,9.855183E2,1.2878918E2,6.130011E2,8.433342E2,1.5382227E3,1.9239258E2,7.537566E2,6.3130474E1,0E0,1.4690369E2,1.06420685E2,3.8016528E2,2.1921377E3,1.0452917E3,2.6822021E1,0E0,2.7996094E2,0E0,5.542219E2,0E0,0E0,0E0,0E0,8.921799E1,6.265039E1,8.871508E2,2.2660764E3,7.3357306E2,6.742942E2,0E0,0E0,0E0,0E0,4.2992017E2,3.1610107E0,0E0,5.6725037E1,1.1339239E2,0E0,7.015054E1,5.6795685E1,0E0,0E0,0E0,0E0,0E0,0E0,0E0,0E0,0E0,0E0,0E0,0E0,0E0,0E0,0E0,0E0,0E0,0E0,0E0,0E0],"parents":[2147483647,0,0,1,1,2,2,3,3,4,4,5,5,6,6,7,7,8,8,9,9,10,10,11,11,13,13,14,14,15,15,16,16,17,17,18,18,20,20,22,22,27,27,28,28,29,29,30,30,31,31,32,32,37,37,38,38,40,40,41,41,43,43,44,44],"right_children":[2,4,6,8,10,12,14,16,18,20,22,24,-1,26,28,30,32,34,36,-1,38,-1,40,-1,-1,-1,-1,42,44,46,48,50,52,-1,-1,-1,-1,54,56,-1,58,60,-1,62,64,-1,-1,-1,-1,-1,-1,-1,-1,-1,-1,-1,-1,-1,-1,-1,-1,-1,-1,-1,-1],"split_conditions":[3.290014E1,3.5828357E2,3.1903334E0,3.5721414E2,3.5886472E2,-1.9055003E0,9.579917E0,3.565859E2,7.8549156E0,4.882E0,1.3339445E1,3.0821524E2,-4.181217E0,3.7868507E1,1.837158E1,3.4598077E2,1.8864824E1,6.840334E0,8.099999E0,-5.322304E-2,1.6042416E1,4.8946795E0,5.9E0,-1.719104E0,7.317524E-1,2.5841665E0,-7.544358E-1,1.6784082E1,1.47E1,3.404115E2,1.2641076E1,6.840334E0,1.5896584E1,-3.451124E0,6.3960667E0,-6.9559627E0,-1.8509126E0,1.4186923E1,1.7869501E1,-2.689086E0,1.27507515E1,1.638825E1,-3.084421E0,5.8000007E0,4.4617844E1,1.3454015E-2,1.4756726E0,5.109293E0,-9.0484947E-1,-5.5091367E0,1.016094E0,1.0520129E1,7.2376215E-1,9.4679266E-2,7.145538E0,3.824833E-1,1.6421422E0,3.1161177E0,1.6688691E-1,-1.5116875E0,1.1656855E0,-6.477927E-1,6.9682777E-1,-1.2959576E-2,-1.4899158E0],"split_indices":[2,3,0,3,3,0,0,3,0,0,2,3,0,2,0,3,2,0,1,0,0,0,1,0,0,0,0,0,1,3,2,0,0,0,0,0,0,2,0,0,0,0,0,1,3,0,0,0,0,0,0,0,0,0,0,0,0,0,0,0,0,0,0,0,0],"split_type":[0,0,0,0,0,0,0,0,0,0,0,0,0,0,0,0,0,0,0,0,0,0,0,0,0,0,0,0,0,0,0,0,0,0,0,0,0,0,0,0,0,0,0,0,0,0,0,0,0,0,0,0,0,0,0,0,0,0,0,0,0,0,0,0,0],"sum_hessian":[2.385E3,2.337E3,4.8E1,2.319E3,1.8E1,4E0,4.4E1,2.31E3,9E0,8E0,1E1,2E0,2E0,6E0,3.8E1,2.3E3,1E1,2E0,7E0,1E0,7E0,1E0,9E0,1E0,1E0,5E0,1E0,1E1,2.8E1,2.2E3,1E2,7E0,3E0,1E0,1E0,6E0,1E0,4E0,3E0,7E0,2E0,7E0,3E0,1.5E1,1.3E1,2.163E3,3.7E1,5E0,9.5E1,1E0,6E0,2E0,1E0,1E0,3E0,1E0,2E0,1E0,1E0,6E0,1E0,1.1E1,4E0,3E0,1E1],"tree_param":{"num_deleted":"0","num_feature":"4","num_nodes":"65","size_leaf_vector":"1"}},{"base_weights":[4.4364193E-3,1.4050418E-1,-9.4215643E-1,4.7258666E-1,-7.838059E-1,-1.7453824E0,2.8341117E0,2.2716156E-1,6.2072535E0,-1.871124E1,-4.857715E-1,7.647588E-1,-2.678776E0,1.1475396E0,1.2177637E1,2.7430436E-1,-1.3678259E1,1.8194743E0,1.1288805E1,-1.0267502E0,-6.058357E0,3.049516E0,-1.1747075E0,-5.6058197E0,3.5359545E0,-1.5140342E1,-2.165006E0,4.314802E0,-4.0190244E0,1.4422321E0,5.4991302E0,2.1380539E-1,1.1303767E1,-5.4641986E0,-1.374931E0,1.4998492E1,-8.769783E-1,1.8992426E1,2.8325982E0,1.2873765E1,-7.7595687E-1,-1.3508049E1,-7.2457564E-1,-3.6371195E0,-4.8616943E0,1.2057514E1,1.7869682E0,-5.2184772E0,-2.4192639E-1,-6.6182075E0,-1.30788E0,3.265787E-1,1.1859769E1,-8.617554E0,4.4383154E0,-1.223088E0,2.6999714E0,7.914288E-2,-4.3260546E0,1.829979E-1,8.677018E0,8.01723E0,2.1925654E0,-2.6075845E0,8.6585903E-1,9.333106E0,1.3501343E0,-2.5131946E0,1.8999559E0,9.884082E-1,7.4297376E0,-1.0317894E0,2.4993403E0,-9.744443E-1,-5.8017526E0,-1.3210361E0,3.5032207E-1,-1.7137183E0,5.434126E-1,4.5016522E0,6.4270675E-1,1.8342673E0,-7.876144E-1,8.7682015E-1,-2.8059404E0,-6.735734E-1,1.0886164E0,1.8438854E0,-1.4981257E0,5.672646E0,-1.0323035E0,-4.85197E0,-1.2905906E0,-1.4282043E-1,3.344855E0],"categories":[],"categories_nodes":[],"categories_segments":[],"categories_sizes":[],"default_left":[0,0,0,0,0,0,0,0,0,0,0,0,0,0,0,0,0,0,0,0,0,0,0,0,0,0,0,0,0,0,0,0,0,0,0,0,0,0,0,0,0,0,0,0,0,0,0,0,0,0,0,0,0,0,0,0,0,0,0,0,0,0,0,0,0,0,0,0,0,0,0,0,0,0,0,0,0,0,0,0,0,0,0,0,0,0,0,0,0,0,0,0,0,0,0],"id":18,"left_children":[1,3,5,7,9,11,13,15,17,19,21,23,25,27,29,31,33,35,37,-1,-1,39,41,43,45,47,49,51,53,55,-1,57,59,-1,-1,61,63,65,67,69,71,73,75,77,-1,79,81,-1,-1,83,85,87,89,91,93,-1,-1,-1,-1,-1,-1,-1,-1,-1,-1,-1,-1,-1,-1,-1,-1,-1,-1,-1,-1,-1,-1,-1,-1,-1,-1,-1,-1,-1,-1,-1,-1,-1,-1,-1,-1,-1,-1,-1,-1],"loss_changes":[3.07451E2,